{"learner":{"attributes":{"scikit_learn":"{\"_estimator_type\": \"classifier\"}"},"feature_names":["Gender","Prison record","Addiction record","Martial status","Occupation","Drug injection","Sex inexchange for goods","Spouse of HIV person","Receiving Blood","Spouse of high-risk person","Unsafe behaviours","Age category"],"feature_types":["int","int","int","int","int","int","int","int","int","int","int","int"],"gradient_booster":{"model":{"gbtree_model_param":{"num_parallel_tree":"1","num_trees":"24"},"iteration_indptr":[0,1,2,3,4,5,6,7,8,9,10,11,12,13,14,15,16,17,18,19,20,21,22,23,24],"tree_info":[0,0,0,0,0,0,0,0,0,0,0,0,0,0,0,0,0,0,0,0,0,0,0,0],"trees":[{"base_weights":[-8.1075275E-1,-9.168132E-1,-1.8187942E-2,-9.426933E-1,-1.5940054E-1,-4.8219585E-1,1.1803136E-1,-9.574726E-1,-8.2881427E-1,-1.721763E-1,2.6666665E-2,-6.23348E-1,-1.9004525E-1,-4.8550237E-2,4.2137593E-1,-9.7240627E-1,-9.1816103E-1,-8.741535E-1,-7.128571E-1,-3.554217E-1,-1.1764706E-1,-2.417266E-2,-5.4113925E-1,-2.8888889E-2,-8.2051285E-2,-5.2255636E-1,5.500821E-2,2.6966291E-3,4.6143252E-1,-2.9388826E-2,-9.360592E-1,-9.435337E-1,-8.478571E-1,-9.091627E-1,-2.3550296E-2,-7.491694E-1,-1.4545455E-2,-4.2962962E-1,-3.125E-2,-1.3396226E-1,4.6874997E-3,2.8571428E-3,-1.7533785E-2,-1.6363636E-2,2.9787233E-3,-5.6809336E-1,2.1E-2,5.043478E-1,8.152174E-3,1.0955882E-2,1.7492164E-2,-2.8892674E-2,-8.460111E-1,-2.8825035E-2,-2.7005395E-2,-2.6468897E-2,-2.233146E-2,-2.7828947E-2,-2.4236452E-2,-2.4452055E-2,-5.6969696E-1,-1.1557376E-2,-2.3571428E-2,-9.000001E-3,8.695652E-2,-1.294964E-3,-4.9744896E-3,1.875E-3,-1.822314E-2,1.1499999E-2,1.8749999E-2,-2.253521E-2,2.475E-2,-2.6889632E-2,-7.80083E-1,-6.143791E-1,-0E0,1.0909091E-2,-4.6153846E-3,-3.5807858E-3,1.530343E-1,-2.4130434E-2,-7.5E-3,-1.9647887E-2,-2.5E-3,3.857143E-3,1.3E-2],"categories":[],"categories_nodes":[],"categories_segments":[],"categories_sizes":[],"default_left":[0,0,0,0,0,0,0,0,0,0,0,0,0,0,0,0,0,0,0,0,0,0,0,0,0,0,0,0,0,0,0,0,0,0,0,0,0,0,0,0,0,0,0,0,0,0,0,0,0,0,0,0,0,0,0,0,0,0,0,0,0,0,0,0,0,0,0,0,0,0,0,0,0,0,0,0,0,0,0,0,0,0,0,0,0,0,0],"id":0,"left_children":[1,3,5,7,9,11,13,15,17,19,-1,21,23,25,27,29,31,33,35,37,39,-1,41,-1,43,45,47,-1,49,-1,51,53,55,57,-1,59,-1,61,63,65,-1,-1,-1,-1,-1,67,-1,69,71,-1,-1,-1,73,-1,-1,-1,-1,-1,-1,-1,75,-1,-1,-1,77,-1,-1,-1,-1,-1,-1,79,-1,-1,81,83,-1,-1,-1,-1,85,-1,-1,-1,-1,-1,-1],"loss_changes":[2.113834E3,4.3460156E2,1.87718E2,3.5302734E1,9.983286E0,2.7675735E1,1.1604106E2,1.0246094E1,1.2367798E1,7.2125454E0,0E0,6.371933E0,1.8367958E1,7.282527E1,1.0767059E1,2.6884766E0,8.550781E0,4.8165283E0,5.432434E0,3.979889E0,2.5278654E0,0E0,8.767151E0,0E0,1.6440887E1,1.5206299E1,2.5639994E1,0E0,8.285736E0,0E0,4.780884E0,2.0175781E0,4.3323364E0,1.6186523E0,0E0,6.655548E0,0E0,1.8308983E0,1.042663E0,1.525733E0,0E0,0E0,0E0,0E0,0E0,6.414253E0,0E0,1.4394913E0,2.7692476E1,0E0,0E0,0E0,1.0885925E0,0E0,0E0,0E0,0E0,0E0,0E0,0E0,4.200119E0,0E0,0E0,0E0,1.5883248E0,0E0,0E0,0E0,0E0,0E0,0E0,1.8122625E1,0E0,0E0,2.8987427E0,3.2401505E0,0E0,0E0,0E0,0E0,2.5430574E0,0E0,0E0,0E0,0E0,0E0,0E0],"parents":[2147483647,0,0,1,1,2,2,3,3,4,4,5,5,6,6,7,7,8,8,9,9,11,11,12,12,13,13,14,14,15,15,16,16,17,17,18,18,19,19,20,20,22,22,24,24,25,25,26,26,28,28,30,30,31,31,32,32,33,33,35,35,37,37,38,38,39,39,45,45,47,47,48,48,52,52,60,60,64,64,71,71,74,74,75,75,80,80],"right_children":[2,4,6,8,10,12,14,16,18,20,-1,22,24,26,28,30,32,34,36,38,40,-1,42,-1,44,46,48,-1,50,-1,52,54,56,58,-1,60,-1,62,64,66,-1,-1,-1,-1,-1,68,-1,70,72,-1,-1,-1,74,-1,-1,-1,-1,-1,-1,-1,76,-1,-1,-1,78,-1,-1,-1,-1,-1,-1,80,-1,-1,82,84,-1,-1,-1,-1,86,-1,-1,-1,-1,-1,-1],"split_conditions":[1E0,1E0,3E0,4E0,1E0,4E0,4E0,3E0,4E0,4E0,2.6666665E-2,1E0,2E0,1E0,1E0,1E0,4E0,1E0,1E0,1E0,5E0,-2.417266E-2,3E0,-2.8888889E-2,1E0,1E0,2E0,2.6966291E-3,4E0,-2.9388826E-2,4E0,1E0,1E0,5E0,-2.3550296E-2,1E0,-1.4545455E-2,5E0,3E0,3E0,4.6874997E-3,2.8571428E-3,-1.7533785E-2,-1.6363636E-2,2.9787233E-3,2E0,2.1E-2,4E0,1E0,1.0955882E-2,1.7492164E-2,-2.8892674E-2,1E0,-2.8825035E-2,-2.7005395E-2,-2.6468897E-2,-2.233146E-2,-2.7828947E-2,-2.4236452E-2,-2.4452055E-2,1E0,-1.1557376E-2,-2.3571428E-2,-9.000001E-3,4E0,-1.294964E-3,-4.9744896E-3,1.875E-3,-1.822314E-2,1.1499999E-2,1.8749999E-2,4E0,2.475E-2,-2.6889632E-2,1E0,5E0,-0E0,1.0909091E-2,-4.6153846E-3,-3.5807858E-3,5E0,-2.4130434E-2,-7.5E-3,-1.9647887E-2,-2.5E-3,3.857143E-3,1.3E-2],"split_indices":[5,7,11,11,9,4,4,11,4,4,0,1,11,1,1,2,4,1,1,1,11,0,4,0,1,7,4,0,11,0,4,1,2,11,0,9,0,11,11,11,0,0,0,0,0,4,0,11,7,0,0,0,1,0,0,0,0,0,0,0,2,0,0,0,11,0,0,0,0,0,0,11,0,0,9,11,0,0,0,0,11,0,0,0,0,0,0],"split_type":[0,0,0,0,0,0,0,0,0,0,0,0,0,0,0,0,0,0,0,0,0,0,0,0,0,0,0,0,0,0,0,0,0,0,0,0,0,0,0,0,0,0,0,0,0,0,0,0,0,0,0,0,0,0,0,0,0,0,0,0,0,0,0,0,0,0,0,0,0,0,0,0,0,0,0,0,0,0,0,0,0,0,0,0,0,0,0],"sum_hessian":[2.5146E4,2.2178E4,2.968E3,2.1445E4,7.33E2,6.73E2,2.295E3,1.8975E4,2.47E3,7.25E2,8E0,4.53E2,2.2E2,1.482E3,8.13E2,1.3734E4,5.241E3,1.771E3,6.99E2,1.65E2,5.6E2,1.38E2,3.15E2,2.6E1,1.94E2,2.65E2,1.217E3,8.8E1,7.25E2,1.1436E4,2.298E3,3.842E3,1.399E3,1.265E3,5.06E2,6.01E2,9.8E1,1.34E2,3.1E1,5.29E2,3.1E1,2E1,2.95E2,5.4E1,1.4E2,2.56E2,9E0,1.14E2,1.103E3,4.07E2,3.18E2,1.76E3,5.38E2,2.731E3,1.111E3,1.044E3,3.55E2,1.063E3,2.02E2,4.37E2,1.64E2,1.21E2,1.3E1,9E0,2.2E1,1.38E2,3.91E2,1.5E1,2.41E2,5.9E1,5.5E1,1.064E3,3.9E1,2.98E2,2.4E2,1.52E2,1.2E1,1E1,1.2E1,6.86E2,3.78E2,2.29E2,1.1E1,1.41E2,1.1E1,3.49E2,2.9E1],"tree_param":{"num_deleted":"0","num_feature":"12","num_nodes":"87","size_leaf_vector":"1"}},{"base_weights":[-8.1194913E-1,-9.173116E-1,-3.021148E-2,-9.423446E-1,-1.9865772E-1,-4.4477174E-1,9.213386E-2,-9.7424674E-1,-8.850229E-1,-3.6594203E-1,-1E-1,-6.108696E-1,-9.5454544E-2,-6.312962E-2,3.7638375E-1,-2.9475104E-2,-9.3108106E-1,-9.189723E-1,-7.9375E-1,-1.2401575E-2,1.7391305E-1,-3.3653846E-1,-3.2697547E-2,-2.3507463E-2,-5.382263E-1,-1.5967742E-2,7.54717E-2,-5.037879E-1,3.1810768E-2,2.3255815E-1,5.7478005E-1,-2.8781636E-2,-8.3716476E-1,-9.4236094E-1,-8.601004E-1,-8.3081764E-1,-6.7209774E-1,-6.6666664E-3,1.2E-2,-4.0697673E-1,-0E0,-6.1764706E-2,3.2142857E-1,4.5000003E-3,-5.8116883E-1,-2.7692307E-2,1.632653E-1,-5.551181E-1,2.1818181E-2,5.123967E-1,-2.079566E-2,-1.904762E-3,8.321168E-3,8.275862E-3,6.00639E-1,-2.6999999E-2,-2.2660945E-2,-2.8469468E-2,-2.4188481E-2,-2.6009085E-2,-6.481481E-1,-2.6391752E-2,-7.70195E-1,-2.231884E-2,-6.175439E-1,-9.5E-3,-1.7777778E-2,1.0227272E-3,-2.8458496E-3,-0E0,1.3499999E-2,-1.3706896E-2,-1.9585492E-2,8.059702E-3,2.2222223E-3,-0E0,-1.7624998E-2,9.857143E-3,2.2499999E-2,-5.1498126E-2,2.4615385E-2,2.067227E-2,1.6307693E-2,-2.2894736E-2,-1.0588235E-2,-2.5322245E-2,-6.1764705E-1,-2.0689655E-2,-1.3012048E-2,-4.7999998E-3,1.3451776E-1,-1.9905213E-2,-7.5E-3,4.8913043E-2,6.255924E-3,7.0175435E-4,1.0714286E-2],"categories":[],"categories_nodes":[],"categories_segments":[],"categories_sizes":[],"default_left":[0,0,0,0,0,0,0,0,0,0,0,0,0,0,0,0,0,0,0,0,0,0,0,0,0,0,0,0,0,0,0,0,0,0,0,0,0,0,0,0,0,0,0,0,0,0,0,0,0,0,0,0,0,0,0,0,0,0,0,0,0,0,0,0,0,0,0,0,0,0,0,0,0,0,0,0,0,0,0,0,0,0,0,0,0,0,0,0,0,0,0,0,0,0,0,0,0],"id":1,"left_children":[1,3,5,7,9,11,13,15,17,19,21,23,25,27,29,-1,31,33,35,-1,37,39,41,-1,43,-1,45,47,49,51,53,-1,55,57,59,61,63,-1,-1,65,-1,67,69,-1,71,-1,73,75,-1,77,79,-1,-1,-1,81,-1,-1,-1,-1,-1,83,-1,85,-1,87,-1,-1,-1,-1,-1,-1,-1,-1,-1,-1,-1,-1,-1,-1,89,-1,-1,-1,-1,-1,-1,91,-1,-1,-1,93,-1,-1,95,-1,-1,-1],"loss_changes":[2.065129E3,3.973047E2,1.511344E2,3.818164E1,1.2258802E1,3.933783E1,1.0157523E2,3.9707031E0,2.2959473E1,7.141018E0,7.471216E0,5.3496094E0,1.6465631E1,6.2310223E1,2.306485E1,0E0,5.098755E0,6.8535156E0,8.821045E0,0E0,2.1487923E0,2.4653406E0,3.797545E0,0E0,9.751389E0,0E0,1.408963E1,1.7086052E1,3.1006275E1,6.2930107E0,2.470131E0,0E0,2.0031738E0,2.8144531E0,1.7587891E0,4.036621E0,1.4654999E0,0E0,0E0,1.2539616E0,0E0,1.0818937E0,1.1571431E0,0E0,2.4453583E0,0E0,1.361898E0,4.5658493E0,0E0,5.0385494E0,2.8610508E1,0E0,0E0,0E0,1.2045822E0,0E0,0E0,0E0,0E0,0E0,1.5640411E0,0E0,7.570709E0,0E0,3.4784622E0,0E0,0E0,0E0,0E0,0E0,0E0,0E0,0E0,0E0,0E0,0E0,0E0,0E0,0E0,2.1577045E1,0E0,0E0,0E0,0E0,0E0,0E0,3.846878E0,0E0,0E0,0E0,2.4861312E0,0E0,0E0,1.4390641E0,0E0,0E0,0E0],"parents":[2147483647,0,0,1,1,2,2,3,3,4,4,5,5,6,6,7,7,8,8,9,9,10,10,11,11,12,12,13,13,14,14,16,16,17,17,18,18,20,20,21,21,22,22,24,24,26,26,27,27,28,28,29,29,30,30,32,32,33,33,34,34,35,35,36,36,39,39,41,41,42,42,44,44,46,46,47,47,49,49,50,50,54,54,60,60,62,62,64,64,79,79,86,86,90,90,93,93],"right_children":[2,4,6,8,10,12,14,16,18,20,22,24,26,28,30,-1,32,34,36,-1,38,40,42,-1,44,-1,46,48,50,52,54,-1,56,58,60,62,64,-1,-1,66,-1,68,70,-1,72,-1,74,76,-1,78,80,-1,-1,-1,82,-1,-1,-1,-1,-1,84,-1,86,-1,88,-1,-1,-1,-1,-1,-1,-1,-1,-1,-1,-1,-1,-1,-1,90,-1,-1,-1,-1,-1,-1,92,-1,-1,-1,94,-1,-1,96,-1,-1,-1],"split_conditions":[1E0,1E0,3E0,3E0,1E0,4E0,4E0,1E0,4E0,5E0,4E0,1E0,1E0,1E0,4E0,-2.9475104E-2,4E0,1E0,1E0,-1.2401575E-2,4E0,1E0,1E0,-2.3507463E-2,3E0,-1.5967742E-2,2E0,1E0,2E0,1E0,1E0,-2.8781636E-2,1E0,5E0,5E0,1E0,1E0,-6.6666664E-3,1.2E-2,4E0,-0E0,3E0,3E0,4.5000003E-3,1E0,-2.7692307E-2,1E0,2E0,2.1818181E-2,4E0,1E0,-1.904762E-3,8.321168E-3,8.275862E-3,1E0,-2.6999999E-2,-2.2660945E-2,-2.8469468E-2,-2.4188481E-2,-2.6009085E-2,1E0,-2.6391752E-2,4E0,-2.231884E-2,4E0,-9.5E-3,-1.7777778E-2,1.0227272E-3,-2.8458496E-3,-0E0,1.3499999E-2,-1.3706896E-2,-1.9585492E-2,8.059702E-3,2.2222223E-3,-0E0,-1.7624998E-2,9.857143E-3,2.2499999E-2,4E0,2.4615385E-2,2.067227E-2,1.6307693E-2,-2.2894736E-2,-1.0588235E-2,-2.5322245E-2,5E0,-2.0689655E-2,-1.3012048E-2,-4.7999998E-3,1E0,-1.9905213E-2,-7.5E-3,5E0,6.255924E-3,7.0175435E-4,1.0714286E-2],"split_indices":[5,7,11,11,10,4,4,2,4,11,4,1,1,1,11,0,4,1,2,0,4,1,2,0,4,0,11,7,4,1,1,0,1,11,11,10,1,0,0,11,0,11,11,0,10,0,10,4,0,11,7,0,0,0,10,0,0,0,0,0,10,0,11,0,11,0,0,0,0,0,0,0,0,0,0,0,0,0,0,11,0,0,0,0,0,0,11,0,0,0,10,0,0,11,0,0,0],"split_type":[0,0,0,0,0,0,0,0,0,0,0,0,0,0,0,0,0,0,0,0,0,0,0,0,0,0,0,0,0,0,0,0,0,0,0,0,0,0,0,0,0,0,0,0,0,0,0,0,0,0,0,0,0,0,0,0,0,0,0,0,0,0,0,0,0,0,0,0,0,0,0,0,0,0,0,0,0,0,0,0,0,0,0,0,0,0,0,0,0,0,0,0,0,0,0,0,0],"sum_hessian":[2.5072E4,2.2094E4,2.978E3,2.135E4,7.44E2,6.78E2,2.3E3,1.3706E4,7.644E3,2.75E2,4.69E2,4.59E2,2.19E2,1.488E3,8.12E2,1.1487E4,2.219E3,5.565E3,2.079E3,2.53E2,2.2E1,1.03E2,3.66E2,1.33E2,3.26E2,6.1E1,1.58E2,2.63E2,1.225E3,4.72E2,3.4E2,1.698E3,5.21E2,3.972E3,1.593E3,1.589E3,4.9E2,8E0,1.4E1,8.5E1,1.8E1,3.39E2,2.7E1,1.9E1,3.07E2,1.2E1,1.46E2,2.53E2,1E1,1.2E2,1.105E3,6.2E1,4.1E2,2.8E1,3.12E2,2.89E2,2.32E2,3.782E3,1.9E2,1.54E3,5.3E1,8.72E2,7.17E2,2.06E2,2.84E2,5.9E1,2.6E1,8.7E1,2.52E2,8E0,1.9E1,1.15E2,1.92E2,6.6E1,8E1,1.4E1,2.39E2,6.9E1,5.1E1,1.067E3,3.8E1,1.18E2,1.94E2,3.7E1,1.6E1,4.8E2,2.37E2,2.02E2,8.2E1,6.74E2,3.93E2,2.1E2,2.7E1,1.83E2,2.1E2,1.7E2,1.3E1],"tree_param":{"num_deleted":"0","num_feature":"12","num_nodes":"97","size_leaf_vector":"1"}},{"base_weights":[-8.1211346E-1,-9.1781133E-1,-1.3983629E-2,-9.6205086E-1,-8.431967E-1,-5.0637525E-1,9.9412754E-2,-2.937215E-2,-9.3458295E-1,-9.0668064E-1,-6.980907E-1,-6.196474E-1,-2.0915033E-1,-3.057325E-1,1.9905956E-1,-8.958525E-1,-2.9841421E-2,-9.154647E-1,-7.159533E-1,-7.828241E-1,-6.18865E-1,-2.4230769E-2,-5.261194E-1,-1.5909089E-2,3.409091E-2,-4.7635135E-1,-1.7045455E-2,7.3150456E-2,4.1151685E-1,-9.094545E-1,-2.4604743E-2,-2.8200772E-2,-8.549906E-1,-2.2878788E-2,-5.5E-1,-7.564767E-1,-2.6477732E-2,-6.8926555E-1,-4.690476E-1,-1.875E-3,-1.660079E-2,-2.0338984E-3,6.9999998E-3,1.7391305E-1,-5.291971E-1,-2.7999999E-2,2.037037E-3,5.405405E-1,2.5617566E-2,8.749999E-3,5.704918E-1,-2.8528707E-2,-2.672585E-2,-2.6628317E-2,-7.737069E-1,-1.9285714E-2,-9.473683E-3,-2.2394821E-2,-2.9230768E-2,-6.730083E-1,-2.9333333E-2,-4.4938272E-1,-2.8125E-2,-0E0,1.3333333E-2,-1.30555555E-2,-1.7604789E-2,1.2631578E-2,1.9636363E-2,-2.1366277E-3,5.689655E-3,2.102564E-2,1.4603174E-2,-7.833698E-1,-3.75E-3,-1.992674E-2,-2.8695652E-2,-1.2117264E-2,-1.7575758E-2,-2.5204917E-2,-7.1495324E-1,-1.3333333E-2,-2.2499999E-2],"categories":[],"categories_nodes":[],"categories_segments":[],"categories_sizes":[],"default_left":[0,0,0,0,0,0,0,0,0,0,0,0,0,0,0,0,0,0,0,0,0,0,0,0,0,0,0,0,0,0,0,0,0,0,0,0,0,0,0,0,0,0,0,0,0,0,0,0,0,0,0,0,0,0,0,0,0,0,0,0,0,0,0,0,0,0,0,0,0,0,0,0,0,0,0,0,0,0,0,0,0,0,0],"id":2,"left_children":[1,3,5,7,9,11,13,-1,15,17,19,21,23,25,27,29,-1,31,33,35,37,-1,39,-1,41,43,45,47,49,51,-1,-1,53,-1,55,57,-1,59,61,-1,-1,-1,-1,63,65,-1,-1,67,69,-1,71,-1,-1,-1,73,-1,-1,-1,-1,75,-1,77,-1,-1,-1,-1,-1,-1,-1,-1,-1,-1,-1,79,-1,-1,-1,-1,-1,-1,81,-1,-1],"loss_changes":[2.1143184E3,7.224414E1,1.637598E2,5.5771484E0,7.532861E1,1.8353745E1,9.630635E1,0E0,1.1533691E1,8.949219E0,1.639209E1,6.5572968E0,1.1970068E1,2.3191204E1,5.116999E1,2.605713E0,0E0,7.331543E0,1.5711517E0,2.515564E0,1.3430298E1,0E0,3.3500137E0,0E0,1.802247E0,1.0263687E1,1.37624445E1,2.6712486E1,1.3399467E1,1.2749023E0,0E0,0E0,3.5369873E0,0E0,1.101881E0,1.371582E0,0E0,3.4929504E0,3.4477692E0,0E0,0E0,0E0,0E0,1.0821257E0,1.2291107E0,0E0,0E0,1.2364655E0,1.737598E1,0E0,2.987587E0,0E0,0E0,0E0,2.810608E0,0E0,0E0,0E0,0E0,1.4590149E0,0E0,2.2768326E0,0E0,0E0,0E0,0E0,0E0,0E0,0E0,0E0,0E0,0E0,0E0,1.1750793E0,0E0,0E0,0E0,0E0,0E0,0E0,1.695488E0,0E0,0E0],"parents":[2147483647,0,0,1,1,2,2,3,3,4,4,5,5,6,6,8,8,9,9,10,10,11,11,12,12,13,13,14,14,15,15,17,17,18,18,19,19,20,20,22,22,24,24,25,25,26,26,27,27,28,28,29,29,32,32,34,34,35,35,37,37,38,38,43,43,44,44,47,47,48,48,50,50,54,54,59,59,61,61,73,73,80,80],"right_children":[2,4,6,8,10,12,14,-1,16,18,20,22,24,26,28,30,-1,32,34,36,38,-1,40,-1,42,44,46,48,50,52,-1,-1,54,-1,56,58,-1,60,62,-1,-1,-1,-1,64,66,-1,-1,68,70,-1,72,-1,-1,-1,74,-1,-1,-1,-1,76,-1,78,-1,-1,-1,-1,-1,-1,-1,-1,-1,-1,-1,80,-1,-1,-1,-1,-1,-1,82,-1,-1],"split_conditions":[1E0,3E0,1E0,4E0,4E0,4E0,3E0,-2.937215E-2,6E0,5E0,1E0,3E0,3E0,4E0,4E0,1E0,-2.9841421E-2,1E0,1E0,1E0,4E0,-2.4230769E-2,2E0,-1.5909089E-2,4E0,3E0,2E0,2E0,4E0,2E0,-2.4604743E-2,-2.8200772E-2,4E0,-2.2878788E-2,1E0,1E0,-2.6477732E-2,1E0,1E0,-1.875E-3,-1.660079E-2,-2.0338984E-3,6.9999998E-3,2E0,1E0,-2.7999999E-2,2.037037E-3,4E0,4E0,8.749999E-3,1E0,-2.8528707E-2,-2.672585E-2,-2.6628317E-2,1E0,-1.9285714E-2,-9.473683E-3,-2.2394821E-2,-2.9230768E-2,6E0,-2.9333333E-2,1E0,-2.8125E-2,-0E0,1.3333333E-2,-1.30555555E-2,-1.7604789E-2,1.2631578E-2,1.9636363E-2,-2.1366277E-3,5.689655E-3,2.102564E-2,1.4603174E-2,1E0,-3.75E-3,-1.992674E-2,-2.8695652E-2,-1.2117264E-2,-1.7575758E-2,-2.5204917E-2,1E0,-1.3333333E-2,-2.2499999E-2],"split_indices":[5,11,1,4,4,4,11,0,4,11,10,11,11,4,4,2,0,1,1,9,11,0,4,0,11,4,11,4,11,11,0,0,11,0,10,8,0,6,6,0,0,0,0,4,10,0,0,11,11,0,10,0,0,0,9,0,0,0,0,4,0,9,0,0,0,0,0,0,0,0,0,0,0,10,0,0,0,0,0,0,2,0,0],"split_type":[0,0,0,0,0,0,0,0,0,0,0,0,0,0,0,0,0,0,0,0,0,0,0,0,0,0,0,0,0,0,0,0,0,0,0,0,0,0,0,0,0,0,0,0,0,0,0,0,0,0,0,0,0,0,0,0,0,0,0,0,0,0,0,0,0,0,0,0,0,0,0,0,0,0,0,0,0,0,0,0,0,0,0],"sum_hessian":[2.5062E4,2.2131E4,2.931E3,1.3886E4,8.245E3,5.48E2,2.383E3,8.552E3,5.334E3,5.732E3,2.513E3,3.96E2,1.52E2,4.7E2,1.913E3,3.254E3,2.08E3,5.476E3,2.56E2,1.21E3,1.303E3,1.29E2,2.67E2,6.5E1,8.7E1,2.95E2,1.75E2,1.202E3,7.11E2,2.749E3,5.05E2,3.884E3,1.592E3,1.97E2,5.9E1,9.64E2,2.46E2,8.84E2,4.19E2,1.5E1,2.52E2,5.8E1,2.9E1,2.2E1,2.73E2,1.4E1,1.61E2,1.1E2,1.092E3,4.07E2,3.04E2,8.35E2,1.914E3,1.129E3,4.63E2,4.1E1,1.8E1,9.26E2,3.8E1,8.4E2,4.4E1,4.04E2,1.5E1,1.4E1,8E0,1.07E2,1.66E2,5.6E1,5.4E1,6.87E2,4.05E2,1.16E2,1.88E2,4.56E2,7E0,8.18E2,2.2E1,3.06E2,9.8E1,2.43E2,2.13E2,2.6E1,1.87E2],"tree_param":{"num_deleted":"0","num_feature":"12","num_nodes":"83","size_leaf_vector":"1"}},{"base_weights":[-8.097757E-1,-9.162864E-1,-2.6245847E-2,-9.422006E-1,-1.9505852E-1,-5.245614E-1,9.0127E-2,-9.5586824E-1,-8.760556E-1,-2.949102E-1,4.6078432E-1,-5.735027E-1,2.55E-2,2.1371769E-2,4.1162792E-1,-9.621166E-1,-8.691667E-1,-8.927746E-1,-5.990566E-1,-4.2578125E-1,-2.1307506E-1,-1.3333333E-2,5.425532E-1,-1.8205645E-2,-8.035714E-3,-1.0209291E-3,2.4999999E-2,1.7333334E-2,1.00337835E-2,-2.8279342E-2,-2.930508E-2,-6.9512194E-1,-2.7392669E-2,-9.0344614E-1,-2.2374999E-2,-0E0,-6.479592E-1,-1.1894273E-2,-1.9E-2,-4.225352E-1,-5.0728866E-3,2.0892857E-2,9.230769E-3,-9.61313E-2,2.1680216E-3,-2.6868131E-2,-1.2307692E-1,-2.8467966E-2,-2.6405595E-2,-2.1818181E-2,-1.2777778E-2,-1.9459458E-2,-1.7142858E-1,1.772727E-2,-3.4254808E-3,-1.6071428E-2,5.5263154E-3,-1.05E-2,1.875E-3],"categories":[],"categories_nodes":[],"categories_segments":[],"categories_sizes":[],"default_left":[0,0,0,0,0,0,0,0,0,0,0,0,0,0,0,0,0,0,0,0,0,0,0,0,0,0,0,0,0,0,0,0,0,0,0,0,0,0,0,0,0,0,0,0,0,0,0,0,0,0,0,0,0,0,0,0,0,0,0],"id":3,"left_children":[1,3,5,7,9,11,13,15,17,19,21,23,-1,25,27,29,31,33,35,37,39,-1,41,-1,-1,43,-1,-1,-1,-1,-1,45,-1,47,-1,-1,49,-1,-1,51,-1,-1,-1,53,-1,-1,55,-1,-1,-1,-1,-1,57,-1,-1,-1,-1,-1,-1],"loss_changes":[2.0983516E3,4.1351758E2,1.7459837E2,1.8480469E1,5.0495388E1,3.8833008E1,5.394918E1,8.751953E0,1.646582E1,7.0634537E0,7.79113E0,5.4542847E0,0E0,3.6583054E1,5.320015E0,3.8076172E0,8.538635E0,4.751953E0,6.2106323E0,1.305996E0,3.7330303E0,0E0,3.1828098E0,0E0,0E0,1.3662116E1,0E0,0E0,0E0,0E0,0E0,2.8102287E1,0E0,2.5725098E0,0E0,0E0,3.141838E0,0E0,0E0,3.920084E0,0E0,0E0,0E0,1.0646408E1,0E0,0E0,8.340572E0,0E0,0E0,0E0,0E0,0E0,1.4839286E0,0E0,0E0,0E0,0E0,0E0,0E0],"parents":[2147483647,0,0,1,1,2,2,3,3,4,4,5,5,6,6,7,7,8,8,9,9,10,10,11,11,13,13,14,14,15,15,16,16,17,17,18,18,19,19,20,20,22,22,25,25,31,31,33,33,36,36,39,39,43,43,46,46,52,52],"right_children":[2,4,6,8,10,12,14,16,18,20,22,24,-1,26,28,30,32,34,36,38,40,-1,42,-1,-1,44,-1,-1,-1,-1,-1,46,-1,48,-1,-1,50,-1,-1,52,-1,-1,-1,54,-1,-1,56,-1,-1,-1,-1,-1,58,-1,-1,-1,-1,-1,-1],"split_conditions":[1E0,1E0,1E0,1E0,4E0,1E0,4E0,4E0,1E0,1E0,1E0,4E0,2.55E-2,1E0,1E0,3E0,5E0,4E0,2E0,1E0,1E0,-1.3333333E-2,5E0,-1.8205645E-2,-8.035714E-3,3E0,2.4999999E-2,1.7333334E-2,1.00337835E-2,-2.8279342E-2,-2.930508E-2,1E0,-2.7392669E-2,1E0,-2.2374999E-2,-0E0,4E0,-1.1894273E-2,-1.9E-2,1E0,-5.0728866E-3,2.0892857E-2,9.230769E-3,2E0,2.1680216E-3,-2.6868131E-2,1E0,-2.8467966E-2,-2.6405595E-2,-2.1818181E-2,-1.2777778E-2,-1.9459458E-2,1E0,1.772727E-2,-3.4254808E-3,-1.6071428E-2,5.5263154E-3,-1.05E-2,1.875E-3],"split_indices":[5,7,1,1,3,7,3,3,0,10,0,3,0,7,10,3,3,3,3,2,0,0,3,0,0,3,0,0,0,0,0,9,0,2,0,0,3,0,0,2,0,0,0,3,0,0,10,0,0,0,0,0,1,0,0,0,0,0,0],"split_type":[0,0,0,0,0,0,0,0,0,0,0,0,0,0,0,0,0,0,0,0,0,0,0,0,0,0,0,0,0,0,0,0,0,0,0,0,0,0,0,0,0,0,0,0,0,0,0,0,0,0,0,0,0,0,0,0,0,0,0],"sum_hessian":[2.5143E4,2.2134E4,3.009E3,2.1366E4,7.68E2,5.69E2,2.44E3,1.7696E4,3.67E3,6.67E2,1.01E2,5.5E2,1.9E1,2.011E3,4.29E2,1.6497E4,1.199E3,3.459E3,2.11E2,2.55E2,4.12E2,8E0,9.3E1,4.95E2,5.5E1,1.958E3,5.3E1,1.34E2,2.95E2,7.13E3,9.367E3,2.45E2,9.54E2,3.22E3,2.39E2,1.6E1,1.95E2,2.26E2,2.9E1,7E1,3.42E2,5.5E1,3.8E1,8.52E2,1.106E3,1.81E2,6.4E1,1.076E3,2.144E3,1.42E2,5.3E1,3.6E1,3.4E1,2.1E1,8.31E2,2.7E1,3.7E1,1.9E1,1.5E1],"tree_param":{"num_deleted":"0","num_feature":"12","num_nodes":"59","size_leaf_vector":"1"}},{"base_weights":[-8.1076235E-1,-9.159971E-1,-2.0995598E-2,-9.60049E-1,-8.41825E-1,-4.5331326E-1,1.0436681E-1,-9.648105E-1,-8.569132E-1,-9.0554595E-1,-6.9406575E-1,-6.0496616E-1,-1.4864865E-1,-5.5929918E-2,3.9900866E-1,-9.29802E-1,-9.792177E-1,-2.8479729E-2,-7.706422E-1,-9.293175E-1,-8.458283E-1,-7.265347E-1,-5.706107E-1,-2.340909E-2,-5.2884614E-1,-1.8688524E-2,3.0864198E-2,-5.1086956E-1,4.7973532E-2,2.829787E-1,5.591716E-1,-2.9101722E-2,-8.6157024E-1,-2.9540299E-2,-2.8111313E-2,-8.172414E-1,-3.9473686E-1,-2.8090978E-2,-7.902439E-1,-8.497567E-1,-5.4545454E-3,-7.0144564E-1,-8.293963E-1,-3.3152175E-1,-6.979472E-1,5E-2,-1.6996587E-2,-2.75E-2,1.05960265E-1,4.6153846E-3,-5.416667E-1,-8.267716E-2,2.700893E-1,-1.4062499E-3,3.3415234E-1,1.923077E-1,5.8785945E-1,-1.6744187E-2,-8.702128E-1,-1.6578946E-2,-2.5612647E-2,-2.2499999E-2,-6.6666664E-3,-2.4677418E-2,-4.5E-1,-8.5921717E-1,-1.7704917E-2,-7.409178E-1,-6.245421E-1,-2.5905292E-2,-7.826087E-3,-5.0359714E-1,5.869565E-3,-2.2065217E-2,-1.5909089E-2,-4.6153846E-3,1.12499995E-2,6.818182E-4,1.9499999E-2,-1.8103449E-2,-1.2527472E-2,-2.4451411E-1,3.3783782E-2,6.584362E-2,5.0970876E-1,5.0999997E-3,1.1590908E-2,1.5E-2,-4.6153846E-3,1.3947369E-2,1.965E-2,-8.421569E-1,-9.411765E-1,-2.5E-3,-2.6666665E-2,-2.649107E-2,-8E-1,-1.21875E-2,-7.507389E-1,-1.943662E-2,-3.8E-1,-1.1752577E-2,-2.2325581E-2,1.0434782E-2,-8.6868685E-3,7.317073E-3,1.2376238E-2,2.5263157E-2,-0E0,2.4444444E-2,1.3833333E-2,-2.4763996E-2,-2.9181818E-2,-2.8661417E-2,-1.0909091E-2,-2.4730679E-2,-1.5384616E-2,-2.224719E-2,-2.918919E-2,-1.9E-2,-0E0,-5.6426326E-4,3.8372092E-3],"categories":[],"categories_nodes":[],"categories_segments":[],"categories_sizes":[],"default_left":[0,0,0,0,0,0,0,0,0,0,0,0,0,0,0,0,0,0,0,0,0,0,0,0,0,0,0,0,0,0,0,0,0,0,0,0,0,0,0,0,0,0,0,0,0,0,0,0,0,0,0,0,0,0,0,0,0,0,0,0,0,0,0,0,0,0,0,0,0,0,0,0,0,0,0,0,0,0,0,0,0,0,0,0,0,0,0,0,0,0,0,0,0,0,0,0,0,0,0,0,0,0,0,0,0,0,0,0,0,0,0,0,0,0,0,0,0,0,0,0,0,0,0],"id":4,"left_children":[1,3,5,7,9,11,13,15,17,19,21,23,25,27,29,31,33,-1,35,37,39,41,43,-1,45,-1,47,49,51,53,55,-1,57,-1,-1,59,61,-1,63,65,-1,67,69,71,73,75,-1,-1,77,-1,79,81,83,-1,85,87,89,-1,91,-1,-1,-1,-1,-1,93,95,-1,97,99,-1,-1,101,-1,-1,-1,-1,-1,-1,-1,-1,-1,103,105,107,109,-1,-1,-1,-1,-1,-1,111,113,-1,-1,-1,115,-1,117,-1,119,-1,-1,-1,-1,-1,121,-1,-1,-1,-1,-1,-1,-1,-1,-1,-1,-1,-1,-1,-1,-1,-1],"loss_changes":[2.0865625E3,7.1578125E1,1.6008923E2,5.995117E0,7.717041E1,3.0589035E1,1.08179306E2,5.783203E0,4.227234E0,7.404785E0,9.58252E0,5.4999084E0,1.8921047E1,7.017289E1,1.4838821E1,9.846191E0,1.2373047E0,0E0,5.405426E0,3.2958984E0,4.159912E0,4.5047607E0,1.5721664E1,0E0,6.838173E0,0E0,1.1624376E1,5.7334213E0,3.5107002E1,7.949173E0,3.4442444E0,0E0,3.3221436E0,0E0,0E0,2.330124E0,2.1622806E0,0E0,1.885315E0,3.5302734E0,0E0,4.3668213E0,7.1640015E0,1.6789839E1,1.7571411E0,1.3826923E0,0E0,0E0,6.822818E0,0E0,1.7718658E0,1.4370195E1,2.1892109E1,0E0,3.422554E0,2.8461537E0,2.279213E0,0E0,2.0145264E0,0E0,0E0,0E0,0E0,0E0,3.1444445E0,1.527832E0,0E0,3.1329956E0,2.8708496E0,0E0,0E0,3.4487534E0,0E0,0E0,0E0,0E0,0E0,0E0,0E0,0E0,0E0,8.612865E0,1.994149E0,1.2420186E1,2.67873E0,0E0,0E0,0E0,0E0,0E0,0E0,1.4199219E0,2.8601685E0,0E0,0E0,0E0,2.829712E0,0E0,1.3460083E0,0E0,4.813334E0,0E0,0E0,0E0,0E0,0E0,1.4579482E0,0E0,0E0,0E0,0E0,0E0,0E0,0E0,0E0,0E0,0E0,0E0,0E0,0E0,0E0,0E0,0E0],"parents":[2147483647,0,0,1,1,2,2,3,3,4,4,5,5,6,6,7,7,8,8,9,9,10,10,11,11,12,12,13,13,14,14,15,15,16,16,18,18,19,19,20,20,21,21,22,22,24,24,26,26,27,27,28,28,29,29,30,30,32,32,35,35,36,36,38,38,39,39,41,41,42,42,43,43,44,44,45,45,48,48,50,50,51,51,52,52,54,54,55,55,56,56,58,58,64,64,65,65,67,67,68,68,71,71,81,81,82,82,83,83,84,84,91,91,92,92,96,96,98,98,100,100,106,106],"right_children":[2,4,6,8,10,12,14,16,18,20,22,24,26,28,30,32,34,-1,36,38,40,42,44,-1,46,-1,48,50,52,54,56,-1,58,-1,-1,60,62,-1,64,66,-1,68,70,72,74,76,-1,-1,78,-1,80,82,84,-1,86,88,90,-1,92,-1,-1,-1,-1,-1,94,96,-1,98,100,-1,-1,102,-1,-1,-1,-1,-1,-1,-1,-1,-1,104,106,108,110,-1,-1,-1,-1,-1,-1,112,114,-1,-1,-1,116,-1,118,-1,120,-1,-1,-1,-1,-1,122,-1,-1,-1,-1,-1,-1,-1,-1,-1,-1,-1,-1,-1,-1,-1,-1],"split_conditions":[1E0,3E0,3E0,4E0,4E0,4E0,4E0,3E0,4E0,1E0,4E0,1E0,1E0,1E0,4E0,4E0,1E0,-2.8479729E-2,1E0,5E0,1E0,1E0,5E0,-2.340909E-2,3E0,-1.8688524E-2,2E0,2E0,4E0,1E0,1E0,-2.9101722E-2,2E0,-2.9540299E-2,-2.8111313E-2,5E0,1E0,-2.8090978E-2,4E0,5E0,-5.4545454E-3,4E0,1E0,1E0,1E0,2E0,-1.6996587E-2,-2.75E-2,5E0,4.6153846E-3,3E0,3E0,3E0,-1.4062499E-3,3E0,3E0,3E0,-1.6744187E-2,1E0,-1.6578946E-2,-2.5612647E-2,-2.2499999E-2,-6.6666664E-3,-2.4677418E-2,5E0,4E0,-1.7704917E-2,2E0,3E0,-2.5905292E-2,-7.826087E-3,5E0,5.869565E-3,-2.2065217E-2,-1.5909089E-2,-4.6153846E-3,1.12499995E-2,6.818182E-4,1.9499999E-2,-1.8103449E-2,-1.2527472E-2,2E0,2E0,2E0,2E0,5.0999997E-3,1.1590908E-2,1.5E-2,-4.6153846E-3,1.3947369E-2,1.965E-2,6E0,1E0,-2.5E-3,-2.6666665E-2,-2.649107E-2,5E0,-1.21875E-2,6E0,-1.943662E-2,1E0,-1.1752577E-2,-2.2325581E-2,1.0434782E-2,-8.6868685E-3,7.317073E-3,4E0,2.5263157E-2,-0E0,2.4444444E-2,1.3833333E-2,-2.4763996E-2,-2.9181818E-2,-2.8661417E-2,-1.0909091E-2,-2.4730679E-2,-1.5384616E-2,-2.224719E-2,-2.918919E-2,-1.9E-2,-0E0,-5.6426326E-4,3.8372092E-3],"split_indices":[5,11,11,3,4,4,4,3,4,1,3,1,1,1,11,4,1,0,1,11,9,9,3,0,4,0,11,4,11,1,1,0,3,0,0,3,2,0,3,11,0,11,2,9,1,4,0,0,3,0,3,3,3,0,3,3,3,0,9,0,0,0,0,0,3,11,0,3,3,0,0,11,0,0,0,0,0,0,0,0,0,4,4,4,4,0,0,0,0,0,0,4,1,0,0,0,3,0,4,0,1,0,0,0,0,0,3,0,0,0,0,0,0,0,0,0,0,0,0,0,0,0,0],"split_type":[0,0,0,0,0,0,0,0,0,0,0,0,0,0,0,0,0,0,0,0,0,0,0,0,0,0,0,0,0,0,0,0,0,0,0,0,0,0,0,0,0,0,0,0,0,0,0,0,0,0,0,0,0,0,0,0,0,0,0,0,0,0,0,0,0,0,0,0,0,0,0,0,0,0,0,0,0,0,0,0,0,0,0,0,0,0,0,0,0,0,0,0,0,0,0,0,0,0,0,0,0,0,0,0,0,0,0,0,0,0,0,0,0,0,0,0,0,0,0,0,0,0,0],"sum_hessian":[2.5105E4,2.2153E4,2.952E3,1.3891E4,8.262E3,6.63E2,2.289E3,1.327E4,6.21E2,5.769E3,2.493E3,4.42E2,2.21E2,1.483E3,8.06E2,3.888E3,9.382E3,2.95E2,3.26E2,4.116E3,1.653E3,1.97E3,5.23E2,1.31E2,3.11E2,6E1,1.61E2,2.75E2,1.208E3,4.69E2,3.37E2,2.437E3,1.451E3,8.287E3,1.095E3,2.89E2,3.7E1,3.912E3,2.04E2,1.643E3,1E1,1.59E3,3.8E2,1.83E2,3.4E2,1.9E1,2.92E2,1.1E1,1.5E2,1.2E1,2.63E2,7.61E2,4.47E2,6.3E1,4.06E2,2.5E1,3.12E2,4.2E1,1.409E3,3.7E1,2.52E2,1.1E1,2.6E1,1.85E2,1.9E1,1.583E3,6E1,1.045E3,5.45E2,3.58E2,2.2E1,1.38E2,4.5E1,2.75E2,6.5E1,1.2E1,7E0,1.31E2,1.9E1,1.73E2,9E1,3.18E2,4.43E2,2.42E2,2.05E2,9.9E1,3.07E2,1.3E1,1.2E1,1.13E2,1.99E2,1.019E3,3.9E2,1.1E1,8E0,1.119E3,4.64E2,3.1E1,1.014E3,4.96E2,4.9E1,9.6E1,4.2E1,2.2E1,2.96E2,4E1,4.03E2,1.8E1,2.24E2,2.6E1,1.79E2,9.1E2,1.09E2,3.8E2,1E1,4.26E2,3.8E1,9.78E2,3.6E1,2.9E1,2E1,3.18E2,8.5E1],"tree_param":{"num_deleted":"0","num_feature":"12","num_nodes":"123","size_leaf_vector":"1"}},{"base_weights":[-8.125274E-1,-9.164598E-1,-2.9241754E-2,-9.407535E-1,-2.1109608E-1,-4.643399E-1,9.636443E-2,-9.7192854E-1,-8.851395E-1,-3.6630037E-1,-1.19914345E-1,-2.1969697E-2,-3.4848484E-1,-3.7325907E-1,1.8389611E-1,-2.9310605E-2,-9.365352E-1,-9.0937775E-1,-8.155922E-1,-4.110672E-1,5.7142857E-3,-3.6486486E-1,-7.360406E-2,-2.8499998E-2,-3.2054177E-1,-4.289855E-1,2.7999999E-2,6.0816683E-2,3.6645162E-1,-2.8610945E-2,-1.7931033E-2,-9.371014E-1,-8.6657804E-1,-8.572464E-1,-7.2186494E-1,-1.2983193E-2,-1.875E-3,-1.5294118E-2,-4.1666668E-2,1.4705883E-3,-1.1604095E-1,-6.368715E-3,-1.1773584E-2,-1.3322981E-2,-2.0833333E-1,1.2010676E-3,2.6785713E-2,1.0620872E-2,2.5263157E-2,-2.891076E-2,-2.6523605E-2,-2.7434515E-2,-8.008342E-1,-2.580834E-2,-1.5E-2,-7.380137E-1,-1.3846153E-2,-9.000001E-3,4E-3,-3.9084507E-3,9.000001E-3,-1.6874999E-2,1.3333333E-2,-2.5647424E-2,-6.896552E-1,-2.3796296E-2,-6.666667E-1,-2.315534E-2,-1.6052632E-2,-2.06639E-2,-1.1428571E-2],"categories":[],"categories_nodes":[],"categories_segments":[],"categories_sizes":[],"default_left":[0,0,0,0,0,0,0,0,0,0,0,0,0,0,0,0,0,0,0,0,0,0,0,0,0,0,0,0,0,0,0,0,0,0,0,0,0,0,0,0,0,0,0,0,0,0,0,0,0,0,0,0,0,0,0,0,0,0,0,0,0,0,0,0,0,0,0,0,0,0,0],"id":5,"left_children":[1,3,5,7,9,11,13,15,17,19,21,-1,23,25,27,-1,29,31,33,35,-1,37,39,-1,41,43,-1,45,47,-1,-1,49,51,53,55,-1,-1,-1,57,-1,59,-1,-1,-1,61,-1,-1,-1,-1,-1,-1,-1,63,-1,-1,65,-1,-1,-1,-1,-1,-1,-1,-1,67,-1,69,-1,-1,-1,-1],"loss_changes":[2.0430898E3,3.7948242E2,1.607734E2,3.627539E1,1.0414249E1,2.020491E1,9.3915764E1,1.5566406E0,1.2246582E1,6.8828583E0,5.270666E0,0E0,7.460869E0,2.6539814E1,4.32302E1,0E0,9.601074E0,5.9575195E0,7.1932373E0,1.8871422E0,0E0,3.4452171E0,2.055973E0,0E0,3.3652039E0,1.0580177E0,0E0,1.9865862E1,4.2812195E0,0E0,0E0,4.008545E0,6.372925E0,1.0644531E0,2.2742004E0,0E0,0E0,0E0,1.125E0,0E0,1.7750301E0,0E0,0E0,0E0,5.798611E0,0E0,0E0,0E0,0E0,0E0,0E0,0E0,5.1764526E0,0E0,0E0,1.7710266E0,0E0,0E0,0E0,0E0,0E0,0E0,0E0,0E0,3.639511E0,0E0,1.3878708E0,0E0,0E0,0E0,0E0],"parents":[2147483647,0,0,1,1,2,2,3,3,4,4,5,5,6,6,7,7,8,8,9,9,10,10,12,12,13,13,14,14,16,16,17,17,18,18,19,19,21,21,22,22,24,24,25,25,27,27,28,28,31,31,32,32,33,33,34,34,38,38,40,40,44,44,52,52,55,55,64,64,66,66],"right_children":[2,4,6,8,10,12,14,16,18,20,22,-1,24,26,28,-1,30,32,34,36,-1,38,40,-1,42,44,-1,46,48,-1,-1,50,52,54,56,-1,-1,-1,58,-1,60,-1,-1,-1,62,-1,-1,-1,-1,-1,-1,-1,64,-1,-1,66,-1,-1,-1,-1,-1,-1,-1,-1,68,-1,70,-1,-1,-1,-1],"split_conditions":[1E0,1E0,3E0,3E0,1E0,1E0,1E0,1E0,1E0,5E0,1E0,-2.1969697E-2,2E0,1E0,4E0,-2.9310605E-2,1E0,1E0,4E0,1E0,5.7142857E-3,1E0,3E0,-2.8499998E-2,1E0,1E0,2.7999999E-2,1E0,1E0,-2.8610945E-2,-1.7931033E-2,4E0,1E0,1E0,1E0,-1.2983193E-2,-1.875E-3,-1.5294118E-2,3E0,1.4705883E-3,1E0,-6.368715E-3,-1.1773584E-2,-1.3322981E-2,4E0,1.2010676E-3,2.6785713E-2,1.0620872E-2,2.5263157E-2,-2.891076E-2,-2.6523605E-2,-2.7434515E-2,1E0,-2.580834E-2,-1.5E-2,1E0,-1.3846153E-2,-9.000001E-3,4E-3,-3.9084507E-3,9.000001E-3,-1.6874999E-2,1.3333333E-2,-2.5647424E-2,4E0,-2.3796296E-2,5E0,-2.315534E-2,-1.6052632E-2,-2.06639E-2,-1.1428571E-2],"split_indices":[5,7,11,11,10,1,1,1,1,11,0,0,11,7,11,0,0,0,11,1,0,1,11,0,10,0,0,7,7,0,0,11,10,9,0,0,0,0,11,0,1,0,0,0,11,0,0,0,0,0,0,0,9,0,0,10,0,0,0,0,0,0,0,0,11,0,11,0,0,0,0],"split_type":[0,0,0,0,0,0,0,0,0,0,0,0,0,0,0,0,0,0,0,0,0,0,0,0,0,0,0,0,0,0,0,0,0,0,0,0,0,0,0,0,0,0,0,0,0,0,0,0,0,0,0,0,0,0,0,0,0,0,0,0,0,0,0,0,0,0,0,0,0,0,0],"sum_hessian":[2.5096E4,2.2156E4,2.94E3,2.1418E4,7.38E2,6.58E2,2.282E3,1.3714E4,7.704E3,2.72E2,4.66E2,1.97E2,4.61E2,3.58E2,1.924E3,1.1966E4,1.748E3,5.704E3,2E3,2.52E2,2E1,7.3E1,3.93E2,1.9E1,4.42E2,3.44E2,1.4E1,1.15E3,7.74E2,1.662E3,8.6E1,3.449E3,2.255E3,1.379E3,6.21E2,2.37E2,1.5E1,5E1,2.3E1,1.01E2,2.92E2,1.78E2,2.64E2,3.21E2,2.3E1,1.123E3,2.7E1,7.56E2,1.8E1,2.285E3,1.164E3,1.297E3,9.58E2,1.366E3,1.3E1,5.83E2,3.8E1,9E0,1.4E1,2.83E2,9E0,1.5E1,8E0,6.4E2,3.18E2,3.23E2,2.6E2,2.05E2,1.13E2,2.4E2,2E1],"tree_param":{"num_deleted":"0","num_feature":"12","num_nodes":"71","size_leaf_vector":"1"}},{"base_weights":[-8.120504E-1,-9.1501343E-1,-4.9423608E-1,-9.439186E-1,-1.8707015E-1,-7.970562E-1,-3.2082695E-1,-9.7307473E-1,-8.849645E-1,-2.8144655E-1,4.673913E-1,-8.7149817E-1,-5.923461E-1,-4.648534E-1,5.422794E-2,-2.9418042E-2,-9.1632086E-1,-9.234754E-1,-7.9426366E-1,-2.9570746E-1,2.625E-2,6.6071427E-1,4.8648645E-3,-2.8952206E-2,-8.243858E-1,-2.7243244E-2,-4.5083934E-1,-9.0214795E-1,-3.8872772E-1,-7.1910113E-1,1.23E-1,-2.822888E-2,-8.352601E-1,-2.8456833E-2,-8.753406E-1,-8.360982E-1,-5.863192E-1,-4.057377E-1,-2.253886E-1,2.1875E-2,6.6666664E-3,-2.8988764E-2,-2.4332343E-2,-5.147453E-1,8.888889E-2,-2.8911289E-2,-8.0813956E-1,-5.4930604E-1,-1.7799044E-1,-2.4375E-2,3E-3,-3.338898E-3,3.1094527E-1,-2.5714286E-2,-1.78125E-2,-8.849817E-1,-2.2211539E-2,-8.8119835E-1,-7.537037E-1,-7.0481926E-1,-4.4366196E-1,-4.3171805E-1,-1.6666666E-3,-2.5722542E-1,1.4634145E-3,-2.5531914E-2,-4.648318E-1,2E-2,-1.2E-2,-2.5746267E-2,-1.8461538E-2,-5.8748114E-1,1.840909E-2,-3.3112583E-1,2.1993127E-1,-2.2099447E-1,9.0692125E-2,2.2064057E-1,1.5491802E-2,-2.6782406E-2,-2.1857142E-2,-2.7199486E-2,-7.7005345E-1,-8.5623E-1,-6.096491E-1,-2.4705881E-2,-5.731707E-1,-2.9761904E-1,-1.9322034E-2,-2.3333333E-1,-1.3787878E-2,-1.5737703E-2,-5.979021E-3,-4.7484276E-1,-3E-3,-6.890863E-1,-4.3784785E-1,-3.435829E-1,2.625E-2,1.8857144E-2,1.6342412E-1,1.2499999E-2,-2.647059E-1,1.6107382E-1,5.1660515E-2,7.613636E-3,-8.333334E-3,-2.647059E-1,-2.6298702E-2,-6.041667E-1,-2.6954887E-2,-2.0851063E-2,-4.659091E-1,-7.3214287E-1,-6.6666664E-3,-3E-3,-1.2E-2,-1.4285714E-2,9.000001E-3,-3.5869566E-1,-5.198238E-1,1.0909091E-2,-7.030848E-1,-9.3023255E-2,-4.668008E-1,-2.4193546E-3,-1.1004367E-2,2.4683545E-3,8.699999E-3,-5.9574465E-3,-1.6999999E-2,2.7522936E-3,1.0243902E-2,2.6033057E-3,-6.9999998E-3,-2.2105262E-2,9.374999E-3,-1.4166666E-2,-2.7692307E-2,-2.117647E-2,-3.9473684E-3,-2.4489796E-2,-3.75E-3,-5.1428573E-3,-1.3965517E-2,-2.3225805E-2,-1.431472E-2,-1.6190477E-2,-2.1494413E-2,-8.333334E-3,1.1538462E-3,-1.46E-2,-8.125E-3],"categories":[],"categories_nodes":[],"categories_segments":[],"categories_sizes":[],"default_left":[0,0,0,0,0,0,0,0,0,0,0,0,0,0,0,0,0,0,0,0,0,0,0,0,0,0,0,0,0,0,0,0,0,0,0,0,0,0,0,0,0,0,0,0,0,0,0,0,0,0,0,0,0,0,0,0,0,0,0,0,0,0,0,0,0,0,0,0,0,0,0,0,0,0,0,0,0,0,0,0,0,0,0,0,0,0,0,0,0,0,0,0,0,0,0,0,0,0,0,0,0,0,0,0,0,0,0,0,0,0,0,0,0,0,0,0,0,0,0,0,0,0,0,0,0,0,0,0,0,0,0,0,0,0,0,0,0,0,0,0,0,0,0,0,0,0,0,0,0,0,0,0,0],"id":6,"left_children":[1,3,5,7,9,11,13,15,17,19,21,23,25,27,29,-1,31,33,35,37,-1,39,-1,-1,41,-1,43,45,47,49,51,-1,53,-1,55,57,59,61,63,-1,-1,-1,-1,65,67,-1,69,71,73,-1,-1,75,77,-1,-1,79,-1,81,83,85,87,89,-1,91,-1,-1,93,-1,-1,-1,-1,95,-1,97,99,101,103,105,-1,-1,-1,-1,107,109,111,-1,113,115,-1,117,-1,-1,-1,119,-1,121,123,125,-1,-1,127,-1,129,131,133,-1,-1,135,-1,137,-1,-1,139,141,-1,-1,-1,-1,-1,143,145,-1,147,149,151,-1,-1,-1,-1,-1,-1,-1,-1,-1,-1,-1,-1,-1,-1,-1,-1,-1,-1,-1,-1,-1,-1,-1,-1,-1,-1,-1,-1],"loss_changes":[8.228926E2,3.996709E2,3.231643E2,3.0555664E1,4.5035213E1,3.364966E1,2.1166705E2,4.321289E0,2.0430664E1,1.0747662E1,5.321575E0,6.4432373E0,2.6444748E1,9.389148E1,5.7952026E1,0E0,2.102417E0,4.2978516E0,1.5281616E1,4.7752495E0,0E0,1.5188503E0,0E0,0E0,1.291626E0,0E0,1.4428856E1,1.6460876E0,8.155777E1,6.890026E0,2.374584E1,0E0,1.3196564E0,0E0,1.2548828E0,4.935791E0,4.877098E0,2.1958923E0,3.3818169E0,0E0,0E0,0E0,0E0,5.8658905E0,1.29777775E1,0E0,1.1318665E0,6.1137848E1,6.3750835E1,0E0,0E0,1.2279402E1,7.3443413E0,0E0,0E0,1.0074463E0,0E0,2.0401E0,7.4534607E0,2.1222305E0,3.9643497E0,1.1481972E0,0E0,5.2539597E0,0E0,0E0,1.1468201E0,0E0,0E0,0E0,0E0,1.9858124E1,0E0,1.1644348E1,6.616783E0,5.155319E0,1.1427181E0,4.712962E0,0E0,0E0,0E0,0E0,9.838806E0,2.7917786E0,2.4745178E0,0E0,4.4121666E0,1.659524E0,0E0,4.0285716E0,0E0,0E0,0E0,1.4749069E0,0E0,1.1868103E1,5.337784E0,4.5391083E0,0E0,0E0,2.6158066E0,0E0,3.2818518E0,1.8321476E0,2.7324002E0,0E0,0E0,9.495936E0,0E0,1.583868E0,0E0,0E0,6.9673862E0,2.7602043E0,0E0,0E0,0E0,0E0,0E0,1.7605801E0,2.0942268E0,0E0,1.3162842E0,1.0552573E0,1.8030472E0,0E0,0E0,0E0,0E0,0E0,0E0,0E0,0E0,0E0,0E0,0E0,0E0,0E0,0E0,0E0,0E0,0E0,0E0,0E0,0E0,0E0,0E0,0E0,0E0,0E0,0E0,0E0,0E0],"parents":[2147483647,0,0,1,1,2,2,3,3,4,4,5,5,6,6,7,7,8,8,9,9,10,10,11,11,12,12,13,13,14,14,16,16,17,17,18,18,19,19,21,21,24,24,26,26,27,27,28,28,29,29,30,30,32,32,34,34,35,35,36,36,37,37,38,38,43,43,44,44,46,46,47,47,48,48,51,51,52,52,55,55,57,57,58,58,59,59,60,60,61,61,63,63,66,66,71,71,73,73,74,74,75,75,76,76,77,77,82,82,83,83,84,84,86,86,87,87,89,89,93,93,95,95,96,96,97,97,100,100,102,102,103,103,104,104,107,107,109,109,112,112,113,113,119,119,120,120,122,122,123,123,124,124],"right_children":[2,4,6,8,10,12,14,16,18,20,22,24,26,28,30,-1,32,34,36,38,-1,40,-1,-1,42,-1,44,46,48,50,52,-1,54,-1,56,58,60,62,64,-1,-1,-1,-1,66,68,-1,70,72,74,-1,-1,76,78,-1,-1,80,-1,82,84,86,88,90,-1,92,-1,-1,94,-1,-1,-1,-1,96,-1,98,100,102,104,106,-1,-1,-1,-1,108,110,112,-1,114,116,-1,118,-1,-1,-1,120,-1,122,124,126,-1,-1,128,-1,130,132,134,-1,-1,136,-1,138,-1,-1,140,142,-1,-1,-1,-1,-1,144,146,-1,148,150,152,-1,-1,-1,-1,-1,-1,-1,-1,-1,-1,-1,-1,-1,-1,-1,-1,-1,-1,-1,-1,-1,-1,-1,-1,-1,-1,-1,-1],"split_conditions":[1E0,1E0,3E0,3E0,4E0,4E0,4E0,1E0,4E0,1E0,5E0,1E0,1E0,1E0,1E0,-2.9418042E-2,4E0,1E0,1E0,1E0,2.625E-2,1E0,4.8648645E-3,-2.8952206E-2,2E0,-2.7243244E-2,5E0,1E0,3E0,1E0,4E0,-2.822888E-2,5E0,-2.8456833E-2,5E0,4E0,3E0,5E0,1E0,2.1875E-2,6.6666664E-3,-2.8988764E-2,-2.4332343E-2,2E0,1E0,-2.8911289E-2,4E0,1E0,4E0,-2.4375E-2,3E-3,3E0,5E0,-2.5714286E-2,-1.78125E-2,5E0,-2.2211539E-2,4E0,1E0,1E0,1E0,1E0,-1.6666666E-3,4E0,1.4634145E-3,-2.5531914E-2,1E0,2E-2,-1.2E-2,-2.5746267E-2,-1.8461538E-2,4E0,1.840909E-2,1E0,2E0,2E0,1E0,1E0,1.5491802E-2,-2.6782406E-2,-2.1857142E-2,-2.7199486E-2,5E0,1E0,3E0,-2.4705881E-2,4E0,1E0,-1.9322034E-2,1E0,-1.3787878E-2,-1.5737703E-2,-5.979021E-3,1E0,-3E-3,2E0,2E0,2E0,2.625E-2,1.8857144E-2,5E0,1.2499999E-2,1E0,4E0,1E0,7.613636E-3,-8.333334E-3,1E0,-2.6298702E-2,4E0,-2.6954887E-2,-2.0851063E-2,1E0,1E0,-6.6666664E-3,-3E-3,-1.2E-2,-1.4285714E-2,9.000001E-3,3E0,3E0,1.0909091E-2,2E0,1E0,5E0,-2.4193546E-3,-1.1004367E-2,2.4683545E-3,8.699999E-3,-5.9574465E-3,-1.6999999E-2,2.7522936E-3,1.0243902E-2,2.6033057E-3,-6.9999998E-3,-2.2105262E-2,9.374999E-3,-1.4166666E-2,-2.7692307E-2,-2.117647E-2,-3.9473684E-3,-2.4489796E-2,-3.75E-3,-5.1428573E-3,-1.3965517E-2,-2.3225805E-2,-1.431472E-2,-1.6190477E-2,-2.1494413E-2,-8.333334E-3,1.1538462E-3,-1.46E-2,-8.125E-3],"split_indices":[1,7,11,11,3,4,4,2,4,9,3,2,2,2,2,0,4,2,2,10,0,2,0,0,11,0,3,10,3,7,11,0,3,0,3,11,3,11,2,0,0,0,0,11,10,0,11,7,11,0,0,3,3,0,0,11,0,3,10,10,0,0,0,4,0,0,9,0,0,0,0,11,0,7,4,3,10,0,0,0,0,0,3,0,3,0,11,10,0,2,0,0,0,10,0,3,4,4,0,0,3,0,0,3,0,0,0,9,0,3,0,0,9,9,0,0,0,0,0,3,3,0,4,10,11,0,0,0,0,0,0,0,0,0,0,0,0,0,0,0,0,0,0,0,0,0,0,0,0,0,0,0,0],"split_type":[0,0,0,0,0,0,0,0,0,0,0,0,0,0,0,0,0,0,0,0,0,0,0,0,0,0,0,0,0,0,0,0,0,0,0,0,0,0,0,0,0,0,0,0,0,0,0,0,0,0,0,0,0,0,0,0,0,0,0,0,0,0,0,0,0,0,0,0,0,0,0,0,0,0,0,0,0,0,0,0,0,0,0,0,0,0,0,0,0,0,0,0,0,0,0,0,0,0,0,0,0,0,0,0,0,0,0,0,0,0,0,0,0,0,0,0,0,0,0,0,0,0,0,0,0,0,0,0,0,0,0,0,0,0,0,0,0,0,0,0,0,0,0,0,0,0,0,0,0,0,0,0,0],"sum_hessian":[2.516E4,1.9002E4,6.158E3,1.8276E4,7.26E2,2.241E3,3.917E3,1.2218E4,6.058E3,6.35E2,9.1E1,1.641E3,6E2,2.83E3,1.087E3,1.0773E4,1.445E3,4.246E3,1.812E3,6.28E2,7E0,5.5E1,3.6E1,5.43E2,1.098E3,1.84E2,4.16E2,4.18E2,2.412E3,8.8E1,9.99E2,1.1E3,3.45E2,2.779E3,1.467E3,1.506E3,3.06E2,2.43E2,3.85E2,4.7E1,8E0,8.8E1,1.01E3,3.72E2,4.4E1,2.47E2,1.71E2,1.368E3,1.044E3,7.9E1,9E0,5.98E2,4.01E2,3.14E2,3.1E1,1.364E3,1.03E2,9.67E2,5.39E2,1.65E2,1.41E2,2.26E2,1.7E1,3.45E2,4E1,4.6E1,3.26E2,2E1,2.4E1,1.33E2,3.8E1,1.325E3,4.3E1,7.54E2,2.9E2,1.8E2,4.18E2,2.8E2,1.21E2,1.295E3,6.9E1,7.81E2,1.86E2,3.12E2,2.27E2,8.4E1,8.1E1,8.3E1,5.8E1,2.9E1,1.97E2,6E1,2.85E2,3.17E2,9E0,7.87E2,5.38E2,7.47E2,7E0,3.4E1,2.56E2,1.1E1,1.69E2,1.48E2,2.7E2,2.63E2,1.7E1,3.3E1,1.53E2,4.7E1,2.65E2,1.4E2,8.7E1,5.5E1,2.6E1,2.9E1,5.4E1,2E1,9E0,9.1E1,2.26E2,1E1,7.77E2,4.2E1,4.96E2,6.1E1,6.86E2,1.57E2,9.9E1,1.4E2,2.9E1,1.08E2,4E1,2.41E2,2.9E1,1.8E1,1.5E1,3.5E1,1.2E1,5E1,3.7E1,4.8E1,7E0,3.4E1,5.7E1,3E1,1.96E2,6.2E1,7.15E2,1.7E1,2.5E1,4.49E2,4.7E1],"tree_param":{"num_deleted":"0","num_feature":"12","num_nodes":"153","size_leaf_vector":"1"}},{"base_weights":[-8.106742E-1,-9.1620415E-1,-2.1915037E-2,-9.417943E-1,-1.7208672E-1,-4.571006E-1,1.0650371E-1,-9.5691156E-1,-8.2508117E-1,-2.7089784E-1,5.16129E-1,-6.0313904E-1,-1.7316018E-1,-5.6489576E-2,4.0745342E-1,-9.72194E-1,-9.1615266E-1,-8.6904764E-1,-7.132668E-1,-2.9421487E-1,7.1428575E-2,2.3529412E-2,5.5813952E-3,-2.4E-2,-5.1602566E-1,-2.64E-2,-8.695652E-2,-5.173745E-1,4.068348E-2,3.0107528E-1,5.5131966E-1,-7.5949365E-1,-9.7334987E-1,-9.450723E-1,-8.359827E-1,-2.7465807E-2,-7.56705E-1,-7.5290215E-1,-1.3939394E-2,-1.5432099E-1,-3.445946E-1,-1.12499995E-2,1.7142858E-1,2.8571428E-3,-5.582192E-1,-4.9122807E-1,6.622516E-2,-5.72E-1,2.6999999E-2,-1.4157706E-1,1.9196428E-1,1.5517242E-3,3.3578432E-1,4.6413502E-1,2.2285715E-2,-2.9142857E-2,-5.777778E-1,-2.933495E-2,-9.420539E-1,-2.8947173E-2,-2.6860781E-2,-2.6635183E-2,-7.527881E-1,-7.8451884E-1,-1.3333333E-2,-2.4054669E-2,-6.181818E-1,-1.5E-2,-6.2015504E-2,1.6666666E-3,-3.6065573E-1,1.4117647E-2,-3.1578946E-3,-1.7269371E-2,-9.545454E-3,-2.4E-2,-1.11627905E-2,1.459854E-2,1.6E-2,2.1428573E-3,-6.075949E-1,-1.9961977E-1,2.3636363E-2,4.8780486E-2,1.4459459E-2,6.6055045E-3,1.1299999E-2,1.5E-2,8.863635E-3,-2.1315789E-2,3.75E-3,-2.865511E-2,-1.859155E-2,-7.888889E-1,-5.6179774E-1,-8.074246E-1,-1.6874999E-2,-2.3421053E-2,-2.5E-1,1.12499995E-2,-2.704918E-3,-2.6666665E-2,-1.0453461E-2,8.888889E-3,-1.6216217E-3,-2.0454545E-2,-1.3928571E-2,1.3846153E-2,-2.5204918E-1,3.3783782E-2,2.625E-2,-2.495238E-2,-2.0514706E-2,-1.0714286E-3,-2.3709677E-2,-2.4617225E-2,-1.0714286E-2,2.2222223E-3,-1.7307691E-2,-1.1208791E-2,-2.9166667E-3,1.1590908E-2,-1.4962594E-4],"categories":[],"categories_nodes":[],"categories_segments":[],"categories_sizes":[],"default_left":[0,0,0,0,0,0,0,0,0,0,0,0,0,0,0,0,0,0,0,0,0,0,0,0,0,0,0,0,0,0,0,0,0,0,0,0,0,0,0,0,0,0,0,0,0,0,0,0,0,0,0,0,0,0,0,0,0,0,0,0,0,0,0,0,0,0,0,0,0,0,0,0,0,0,0,0,0,0,0,0,0,0,0,0,0,0,0,0,0,0,0,0,0,0,0,0,0,0,0,0,0,0,0,0,0,0,0,0,0,0,0,0,0,0,0,0,0,0,0,0,0,0,0],"id":7,"left_children":[1,3,5,7,9,11,13,15,17,19,21,23,25,27,29,31,33,35,37,39,41,-1,-1,-1,43,-1,45,47,49,51,53,55,57,59,61,-1,63,65,-1,67,69,-1,71,-1,73,75,77,79,-1,81,83,-1,85,87,-1,-1,89,-1,91,-1,-1,-1,93,95,-1,-1,97,-1,99,-1,101,-1,-1,-1,-1,-1,-1,103,-1,-1,105,107,-1,109,-1,-1,-1,-1,-1,-1,-1,-1,-1,111,113,115,-1,-1,117,-1,-1,-1,-1,-1,-1,-1,-1,-1,119,121,-1,-1,-1,-1,-1,-1,-1,-1,-1,-1,-1,-1,-1],"loss_changes":[2.0914102E3,4.2182812E2,1.658065E2,3.701172E1,5.03263E1,2.7926727E1,1.1240292E2,1.0919922E1,1.1493408E1,5.177414E0,8.086727E0,7.235733E0,1.3998812E1,6.661723E1,1.2153915E1,2.647461E0,1.1238281E1,8.518066E0,6.5579224E0,4.2107506E0,1.9392859E0,0E0,0E0,0E0,8.100067E0,0E0,1.285142E1,2.056781E1,3.3913807E1,4.0070877E0,5.349617E0,2.4811745E0,1E0,2.8876953E0,5.30249E0,0E0,4.184967E0,3.478424E0,0E0,5.1380997E0,2.8735695E0,0E0,2.9466605E0,0E0,1.0382843E0,1.7991028E0,3.6336124E0,5.7690964E0,0E0,3.0260336E1,2.7881847E1,0E0,1.8452835E0,1.2860565E0,0E0,0E0,4.2869873E0,0E0,6.7772217E0,0E0,0E0,0E0,3.2662354E0,1.9767151E0,0E0,0E0,9.677906E0,0E0,1.6206791E0,0E0,2.443634E0,0E0,0E0,0E0,0E0,0E0,0E0,2.6654978E0,0E0,0E0,2.2043915E0,1.8349667E1,0E0,5.558586E0,0E0,0E0,0E0,0E0,0E0,0E0,0E0,0E0,0E0,1.4575195E0,1.0671633E1,2.2588806E0,0E0,0E0,5.5519943E0,0E0,0E0,0E0,0E0,0E0,0E0,0E0,0E0,0E0,9.149509E0,6.0714E0,0E0,0E0,0E0,0E0,0E0,0E0,0E0,0E0,0E0,0E0,0E0,0E0,0E0],"parents":[2147483647,0,0,1,1,2,2,3,3,4,4,5,5,6,6,7,7,8,8,9,9,10,10,11,11,12,12,13,13,14,14,15,15,16,16,17,17,18,18,19,19,20,20,24,24,26,26,27,27,28,28,29,29,30,30,31,31,32,32,33,33,34,34,36,36,37,37,39,39,40,40,42,42,44,44,45,45,46,46,47,47,49,49,50,50,52,52,53,53,56,56,58,58,62,62,63,63,66,66,68,68,70,70,77,77,80,80,81,81,83,83,93,93,94,94,95,95,98,98,108,108,109,109],"right_children":[2,4,6,8,10,12,14,16,18,20,22,24,26,28,30,32,34,36,38,40,42,-1,-1,-1,44,-1,46,48,50,52,54,56,58,60,62,-1,64,66,-1,68,70,-1,72,-1,74,76,78,80,-1,82,84,-1,86,88,-1,-1,90,-1,92,-1,-1,-1,94,96,-1,-1,98,-1,100,-1,102,-1,-1,-1,-1,-1,-1,104,-1,-1,106,108,-1,110,-1,-1,-1,-1,-1,-1,-1,-1,-1,112,114,116,-1,-1,118,-1,-1,-1,-1,-1,-1,-1,-1,-1,120,122,-1,-1,-1,-1,-1,-1,-1,-1,-1,-1,-1,-1,-1],"split_conditions":[1E0,1E0,3E0,4E0,4E0,4E0,4E0,3E0,4E0,1E0,5E0,1E0,2E0,1E0,4E0,2E0,4E0,1E0,1E0,3E0,3E0,2.3529412E-2,5.5813952E-3,-2.4E-2,3E0,-2.64E-2,1E0,1E0,3E0,1E0,5E0,1E0,1E0,1E0,3E0,-2.7465807E-2,5E0,1E0,-1.3939394E-2,1E0,2E0,-1.12499995E-2,4E0,2.8571428E-3,4E0,3E0,5E0,2E0,2.6999999E-2,1E0,4E0,1.5517242E-3,3E0,5E0,2.2285715E-2,-2.9142857E-2,1E0,-2.933495E-2,1E0,-2.8947173E-2,-2.6860781E-2,-2.6635183E-2,1E0,5E0,-1.3333333E-2,-2.4054669E-2,3E0,-1.5E-2,4E0,1.6666666E-3,2E0,1.4117647E-2,-3.1578946E-3,-1.7269371E-2,-9.545454E-3,-2.4E-2,-1.11627905E-2,3E0,1.6E-2,2.1428573E-3,3E0,2E0,2.3636363E-2,1E0,1.4459459E-2,6.6055045E-3,1.1299999E-2,1.5E-2,8.863635E-3,-2.1315789E-2,3.75E-3,-2.865511E-2,-1.859155E-2,1E0,5E0,1E0,-1.6874999E-2,-2.3421053E-2,5E0,1.12499995E-2,-2.704918E-3,-2.6666665E-2,-1.0453461E-2,8.888889E-3,-1.6216217E-3,-2.0454545E-2,-1.3928571E-2,1.3846153E-2,4E0,2E0,2.625E-2,-2.495238E-2,-2.0514706E-2,-1.0714286E-3,-2.3709677E-2,-2.4617225E-2,-1.0714286E-2,2.2222223E-3,-1.7307691E-2,-1.1208791E-2,-2.9166667E-3,1.1590908E-2,-1.4962594E-4],"split_indices":[5,7,11,11,3,4,4,11,4,1,3,1,11,1,11,3,4,1,1,11,11,0,0,0,4,0,1,7,3,1,3,0,1,1,3,0,3,9,0,0,3,0,11,0,3,3,3,4,0,7,11,0,3,11,0,0,1,0,0,0,0,0,9,11,0,0,3,0,4,0,4,0,0,0,0,0,0,3,0,0,3,4,0,7,0,0,0,0,0,0,0,0,0,1,3,0,0,0,3,0,0,0,0,0,0,0,0,0,11,4,0,0,0,0,0,0,0,0,0,0,0,0,0],"split_type":[0,0,0,0,0,0,0,0,0,0,0,0,0,0,0,0,0,0,0,0,0,0,0,0,0,0,0,0,0,0,0,0,0,0,0,0,0,0,0,0,0,0,0,0,0,0,0,0,0,0,0,0,0,0,0,0,0,0,0,0,0,0,0,0,0,0,0,0,0,0,0,0,0,0,0,0,0,0,0,0,0,0,0,0,0,0,0,0,0,0,0,0,0,0,0,0,0,0,0,0,0,0,0,0,0,0,0,0,0,0,0,0,0,0,0,0,0,0,0,0,0,0,0],"sum_hessian":[2.5125E4,2.216E4,2.965E3,2.1423E4,7.37E2,6.75E2,2.29E3,1.896E4,2.463E3,6.45E2,9.2E1,4.45E2,2.3E2,1.486E3,8.04E2,1.3773E4,5.187E3,1.763E3,7E2,6.04E2,4.1E1,5E1,4.2E1,1.34E2,3.11E2,2.4E1,2.06E2,2.58E2,1.228E3,4.64E2,3.4E2,7.8E1,1.3695E4,3.804E3,1.383E3,1.242E3,5.21E2,6.02E2,9.8E1,1.61E2,4.43E2,7E0,3.4E1,2E1,2.91E2,5.6E1,1.5E2,2.49E2,9E0,5.57E2,6.71E2,5.7E1,4.07E2,2.36E2,1.04E2,3.4E1,4.4E1,1.1953E4,1.742E3,2.706E3,1.098E3,8.46E2,5.37E2,4.77E2,4.4E1,4.38E2,1.64E2,3.3E1,1.28E2,1.7E1,4.26E2,1.6E1,1.8E1,2.7E2,2.1E1,1.4E1,4.2E1,1.36E2,1.4E1,1.3E1,2.36E2,5.25E2,3.2E1,4.5E2,2.21E2,1.08E2,2.99E2,1.93E2,4.3E1,3.7E1,7E0,1.672E3,7E1,4.49E2,8.8E1,4.3E2,4.7E1,1.13E2,5.1E1,7E0,1.21E2,8E0,4.18E2,2.6E1,1.1E2,1.53E2,8.3E1,3.8E1,4.87E2,4.43E2,7E0,3.14E2,1.35E2,2.7E1,6.1E1,4.17E2,1.3E1,2.6E1,2.5E1,2.72E2,2.15E2,4.3E1,4E2],"tree_param":{"num_deleted":"0","num_feature":"12","num_nodes":"123","size_leaf_vector":"1"}},{"base_weights":[-8.1357145E-1,-9.173691E-1,-3.5147008E-2,-9.417444E-1,-2.1370968E-1,-1.976141E-1,2.6841086E-1,-9.499699E-1,-8.3278257E-1,-3.1415242E-1,4.2156863E-1,-2.2957821E-1,2.625E-2,1.8663304E-1,5.375E-1,-9.65234E-1,-9.00488E-1,-6.877193E-1,-8.6574453E-1,-1.3386454E-2,-2.2900763E-1,6.3793105E-1,4E-3,3.263889E-1,-2.7572253E-1,-2.2499999E-2,2.0076726E-1,2.1666666E-2,1.2715232E-2,-9.456436E-1,-2.9374296E-2,-2.778612E-2,-7.8286386E-1,-2.5467627E-2,-5.3061223E-1,-2.7171837E-2,-7.780612E-1,-3.956044E-1,-1.7821783E-1,7.5E-3,2.1702126E-2,7.438016E-3,2.1249998E-2,-3.243243E-1,2.1028037E-3,1.904145E-1,2.7272727E-2,-2.9005157E-2,-9.073342E-1,-3.4615383E-3,-2.408706E-2,-2.3636363E-2,-1.3565217E-2,-2.5224488E-2,-2.0067567E-2,-2.1818181E-2,-3.4567901E-1,-6.3986015E-3,1.1666667E-2,1.6874999E-2,-3.3355525E-1,2.0624152E-1,-4.166667E-3,-2.8052783E-2,-2.5856163E-2,-4.1666666E-1,-4.090909E-3,-4.350205E-1,-2.3704663E-1,8.52E-3,1.659836E-1,-1.7837837E-2,-3.75E-3,-2.3076924E-2,-1.2851182E-2,-2.3571428E-2,-6.7984187E-3,4.726891E-3,1.3846153E-2],"categories":[],"categories_nodes":[],"categories_segments":[],"categories_sizes":[],"default_left":[0,0,0,0,0,0,0,0,0,0,0,0,0,0,0,0,0,0,0,0,0,0,0,0,0,0,0,0,0,0,0,0,0,0,0,0,0,0,0,0,0,0,0,0,0,0,0,0,0,0,0,0,0,0,0,0,0,0,0,0,0,0,0,0,0,0,0,0,0,0,0,0,0,0,0,0,0,0,0],"id":8,"left_children":[1,3,5,7,9,11,13,15,17,19,21,23,-1,25,27,29,31,33,35,-1,37,39,-1,41,43,-1,45,-1,-1,47,-1,-1,49,-1,51,-1,53,55,57,-1,-1,-1,-1,59,-1,61,-1,-1,63,-1,-1,-1,-1,-1,-1,-1,65,-1,-1,-1,67,69,-1,-1,-1,71,-1,73,75,-1,77,-1,-1,-1,-1,-1,-1,-1,-1],"loss_changes":[2.0313281E3,3.802793E2,1.4598549E2,1.8423828E1,4.7606396E1,6.630265E1,2.2609383E1,1.4183594E1,6.63916E0,7.1279984E0,6.275997E0,4.814129E1,0E0,1.0648773E1,4.732765E0,3.2197266E0,1.3530762E1,6.767441E0,3.604004E0,0E0,3.2548332E0,1.7422962E0,0E0,4.1394053E0,2.909932E1,0E0,5.5613804E0,0E0,0E0,4.276367E0,0E0,0E0,1.13029175E1,0E0,2.610138E0,0E0,2.122467E0,1.255436E0,6.1089497E0,0E0,0E0,0E0,0E0,1.2606125E1,0E0,4.052223E0,0E0,0E0,2.067627E0,0E0,0E0,0E0,0E0,0E0,0E0,0E0,1.1467457E0,0E0,0E0,0E0,1.4604874E1,2.259962E0,0E0,0E0,0E0,3.0394144E0,0E0,1.2945709E0,4.2409286E0,0E0,1.1417856E0,0E0,0E0,0E0,0E0,0E0,0E0,0E0,0E0],"parents":[2147483647,0,0,1,1,2,2,3,3,4,4,5,5,6,6,7,7,8,8,9,9,10,10,11,11,13,13,14,14,15,15,16,16,17,17,18,18,20,20,21,21,23,23,24,24,26,26,29,29,32,32,34,34,36,36,37,37,38,38,43,43,45,45,48,48,56,56,60,60,61,61,65,65,67,67,68,68,70,70],"right_children":[2,4,6,8,10,12,14,16,18,20,22,24,-1,26,28,30,32,34,36,-1,38,40,-1,42,44,-1,46,-1,-1,48,-1,-1,50,-1,52,-1,54,56,58,-1,-1,-1,-1,60,-1,62,-1,-1,64,-1,-1,-1,-1,-1,-1,-1,66,-1,-1,-1,68,70,-1,-1,-1,72,-1,74,76,-1,78,-1,-1,-1,-1,-1,-1,-1,-1],"split_conditions":[1E0,1E0,4E0,4E0,4E0,1E0,5E0,1E0,5E0,1E0,5E0,2E0,2.625E-2,1E0,1E0,3E0,4E0,1E0,1E0,-1.3386454E-2,4E0,4E0,4E-3,4E0,4E0,-2.2499999E-2,1E0,2.1666666E-2,1.2715232E-2,4E0,-2.9374296E-2,-2.778612E-2,2E0,-2.5467627E-2,1E0,-2.7171837E-2,4E0,3E0,1E0,7.5E-3,2.1702126E-2,7.438016E-3,2.1249998E-2,2E0,2.1028037E-3,1E0,2.7272727E-2,-2.9005157E-2,1E0,-3.4615383E-3,-2.408706E-2,-2.3636363E-2,-1.3565217E-2,-2.5224488E-2,-2.0067567E-2,-2.1818181E-2,1E0,-6.3986015E-3,1.1666667E-2,1.6874999E-2,3E0,3E0,-4.166667E-3,-2.8052783E-2,-2.5856163E-2,1E0,-4.090909E-3,1E0,1E0,8.52E-3,4E0,-1.7837837E-2,-3.75E-3,-2.3076924E-2,-1.2851182E-2,-2.3571428E-2,-6.7984187E-3,4.726891E-3,1.3846153E-2],"split_indices":[5,7,4,3,3,7,3,2,3,10,3,4,0,2,10,3,4,10,2,0,4,4,0,3,3,0,7,0,0,4,0,0,3,0,0,0,4,4,2,0,0,0,0,3,0,0,0,0,10,0,0,0,0,0,0,0,0,0,0,0,3,3,0,0,0,2,0,2,2,0,3,0,0,0,0,0,0,0,0],"split_type":[0,0,0,0,0,0,0,0,0,0,0,0,0,0,0,0,0,0,0,0,0,0,0,0,0,0,0,0,0,0,0,0,0,0,0,0,0,0,0,0,0,0,0,0,0,0,0,0,0,0,0,0,0,0,0,0,0,0,0,0,0,0,0,0,0,0,0,0,0,0,0,0,0,0,0,0,0,0,0],"sum_hessian":[2.514E4,2.2182E4,2.958E3,2.1439E4,7.43E2,1.927E3,1.031E3,1.9927E4,1.512E3,6.42E2,1.01E2,1.872E3,5.5E1,7.92E2,2.39E2,1.5215E4,4.712E3,2.84E2,1.228E3,2.5E2,3.92E2,5.7E1,4.4E1,1.43E2,1.729E3,1.1E1,7.81E2,8.9E1,1.5E2,6.346E3,8.869E3,3.861E3,8.51E2,1.38E2,1.46E2,8.37E2,3.91E2,9E1,3.02E2,1.1E1,4.6E1,1.2E2,2.3E1,1.516E3,2.13E2,7.71E2,1E1,4.07E3,2.276E3,2.5E1,8.26E2,3.2E1,1.14E2,2.44E2,1.47E2,1E1,8E1,2.85E2,1.7E1,1.5E1,1.501E3,7.36E2,3.5E1,1.401E3,8.75E2,5.9E1,2.1E1,7.3E2,7.71E2,2.49E2,4.87E2,3.6E1,2.3E1,1.2E1,7.18E2,1.3E1,7.58E2,4.75E2,1.2E1],"tree_param":{"num_deleted":"0","num_feature":"12","num_nodes":"79","size_leaf_vector":"1"}},{"base_weights":[-8.149165E-1,-9.1803944E-1,-3.0790284E-2,-9.432152E-1,-1.981383E-1,-5.397412E-1,8.47671E-2,-9.565929E-1,-8.7979746E-1,-2.972561E-1,4.742268E-1,-5.7984793E-1,2.4375E-2,5.099439E-3,4.539007E-1,-9.627137E-1,-8.7326247E-1,-8.913227E-1,-6.614583E-1,-3.1124806E-1,2.625E-2,1.8947367E-2,2.4390244E-1,-1.8538622E-2,-5.6249998E-3,-1.1979166E-2,2.3571428E-2,1.9153845E-2,1.1122449E-2,-9.443204E-1,-2.9302176E-2,-2.7497292E-2,-7.3754156E-1,-2.7038937E-2,-2.2650601E-2,-9.230769E-3,-6.8333334E-1,-1.2669323E-2,-2.4060151E-1,-3E-3,1.03124995E-2,1.9499999E-2,-1.8937401E-2,-8.230769E-1,-2.839278E-2,-1.9672132E-1,-2.614108E-2,-2.2442747E-2,-1.5E-2,-4.225352E-1,-2.006079E-1,-3.1403939E-3,1.3486238E-3,-2.7326733E-2,-1.5E-2,-2.0689655E-2,7.2727273E-3,-1.7222222E-2,1.6666666E-3,-5.4968945E-3,-2.625E-2],"categories":[],"categories_nodes":[],"categories_segments":[],"categories_sizes":[],"default_left":[0,0,0,0,0,0,0,0,0,0,0,0,0,0,0,0,0,0,0,0,0,0,0,0,0,0,0,0,0,0,0,0,0,0,0,0,0,0,0,0,0,0,0,0,0,0,0,0,0,0,0,0,0,0,0,0,0,0,0,0,0],"id":9,"left_children":[1,3,5,7,9,11,13,15,17,19,21,23,-1,25,27,29,31,33,35,37,-1,-1,39,-1,-1,41,-1,-1,-1,43,-1,-1,45,-1,-1,-1,47,-1,49,-1,-1,-1,51,53,-1,55,-1,-1,-1,57,59,-1,-1,-1,-1,-1,-1,-1,-1,-1,-1],"loss_changes":[2.0328281E3,4.0249414E2,1.7195627E2,1.7371094E1,5.0256767E1,2.9811676E1,7.007697E1,8.1953125E0,8.851807E0,1.1032177E1,3.361433E0,7.748291E0,0E0,2.6153097E1,6.254936E0,3.3330078E0,6.51355E0,4.161377E0,1.2755585E0,4.990574E0,0E0,0E0,1.4422255E0,0E0,0E0,8.856225E0,0E0,0E0,0E0,1.0507812E0,0E0,0E0,2.1613983E1,0E0,0E0,0E0,1.7629776E0,0E0,2.8184338E0,0E0,0E0,0E0,1.0418789E1,3.23275E0,0E0,1.3371841E1,0E0,0E0,0E0,5.1757965E0,3.6954365E0,0E0,0E0,0E0,0E0,0E0,0E0,0E0,0E0,0E0,0E0],"parents":[2147483647,0,0,1,1,2,2,3,3,4,4,5,5,6,6,7,7,8,8,9,9,10,10,11,11,13,13,14,14,15,15,16,16,17,17,18,18,19,19,22,22,25,25,29,29,32,32,36,36,38,38,42,42,43,43,45,45,49,49,50,50],"right_children":[2,4,6,8,10,12,14,16,18,20,22,24,-1,26,28,30,32,34,36,38,-1,-1,40,-1,-1,42,-1,-1,-1,44,-1,-1,46,-1,-1,-1,48,-1,50,-1,-1,-1,52,54,-1,56,-1,-1,-1,58,60,-1,-1,-1,-1,-1,-1,-1,-1,-1,-1],"split_conditions":[1E0,1E0,1E0,1E0,4E0,1E0,4E0,4E0,1E0,1E0,5E0,4E0,2.4375E-2,1E0,1E0,3E0,1E0,4E0,2E0,1E0,2.625E-2,1.8947367E-2,1E0,-1.8538622E-2,-5.6249998E-3,2E0,2.3571428E-2,1.9153845E-2,1.1122449E-2,2E0,-2.9302176E-2,-2.7497292E-2,5E0,-2.7038937E-2,-2.2650601E-2,-9.230769E-3,4E0,-1.2669323E-2,1E0,-3E-3,1.03124995E-2,1.9499999E-2,3E0,1E0,-2.839278E-2,1E0,-2.614108E-2,-2.2442747E-2,-1.5E-2,1E0,3E0,-3.1403939E-3,1.3486238E-3,-2.7326733E-2,-1.5E-2,-2.0689655E-2,7.2727273E-3,-1.7222222E-2,1.6666666E-3,-5.4968945E-3,-2.625E-2],"split_indices":[5,7,1,1,3,7,3,3,0,9,3,3,0,7,10,3,9,3,3,10,0,0,10,0,0,3,0,0,0,3,0,0,3,0,0,0,3,0,0,0,0,0,3,9,0,10,0,0,0,1,3,0,0,0,0,0,0,0,0,0,0],"split_type":[0,0,0,0,0,0,0,0,0,0,0,0,0,0,0,0,0,0,0,0,0,0,0,0,0,0,0,0,0,0,0,0,0,0,0,0,0,0,0,0,0,0,0,0,0,0,0,0,0,0,0,0,0,0,0,0,0,0,0,0,0],"sum_hessian":[2.5139E4,2.2217E4,2.922E3,2.1466E4,7.51E2,5.4E2,2.382E3,1.7715E4,3.751E3,6.55E2,9.6E1,5.25E2,1.5E1,1.96E3,4.22E2,1.6493E4,1.222E3,3.56E3,1.91E2,6.48E2,7E0,5.6E1,4E1,4.78E2,4.7E1,1.919E3,4.1E1,1.29E2,2.93E2,7.165E3,9.328E3,9.22E2,3E2,3.312E3,2.48E2,1.2E1,1.79E2,2.5E2,3.98E2,9E0,3.1E1,1.9E1,1.9E3,1.29E2,7.036E3,6E1,2.4E2,1.3E2,4.9E1,7E1,3.28E2,8.11E2,1.089E3,1E2,2.9E1,2.8E1,3.2E1,5.3E1,1.7E1,3.21E2,7E0],"tree_param":{"num_deleted":"0","num_feature":"12","num_nodes":"61","size_leaf_vector":"1"}},{"base_weights":[-8.13776E-1,-9.1902447E-1,-4.3839257E-2,-9.431861E-1,-2.2297297E-1,-4.892704E-1,9.079118E-2,-9.570184E-1,-8.3692557E-1,-3.121118E-1,3.71134E-1,-6.303419E-1,-2.025862E-1,-7.364865E-2,3.82494E-1,-9.717167E-1,-9.177043E-1,-8.733821E-1,-7.408492E-1,-4.576923E-1,-2.12987E-1,-1.12499995E-2,4.3333334E-1,-2.5E-1,-6.605081E-1,-2.9326922E-1,5.6E-1,-1.06219426E-1,2.5799999E-2,2.6923078E-1,5.4545456E-1,-2.9231416E-2,-9.128289E-1,-2.8374735E-2,-8.386146E-1,-2.7092908E-2,-8.339768E-1,-8.411458E-1,-6.1E-1,3.75E-3,-1.4229249E-2,-1.26136355E-2,-1.5100671E-1,5.9615386E-1,6.153846E-3,-1.2E-2,2.5E-3,-5.477707E-1,-2.1660648E-2,-2.6086954E-2,-6.612903E-3,2.4999999E-2,-3.75E-3,-3.0802292E-1,8.583106E-2,1.3533835E-1,9.530386E-3,6.484375E-1,1.4439251E-2,-2.91E-2,-2.5631066E-2,-8.7947494E-1,-7.7115387E-1,-8.5E-1,-2.0384615E-2,-7.105263E-1,-2.6789667E-2,-2.186747E-2,-4.5925927E-1,-1.3745704E-1,-1.8749999E-2,6.6666664E-3,1.9772727E-2,-1.7399998E-2,3.75E-3,3.5185185E-1,-3.627907E-1,-4.771372E-2,3.75E-1,8.730159E-2,2.625E-2,1.4716981E-2,2.2499999E-2,-1.7419353E-2,-2.6695544E-2,-2.4174107E-2,-5.479452E-1,-2.5771514E-2,-1.7777778E-2,-1.7922077E-2,-2.7631579E-2,-5.9782606E-1,-1.590909E-1,-7.2289153E-4,-5.4545454E-3,5E-3,5.6E-1,2.1818181E-2,-3.8110235E-1,9.2857145E-3,-2.4025973E-3,2.733813E-1,1.5638297E-2,1.1965812E-1,-9.000001E-3,1.3636364E-1,-2.4807692E-2,-8.888889E-3,-7.121212E-1,5.7142857E-3,-1.375E-2,7.5E-3,2.3571428E-2,-1.4878706E-2,-6.566038E-3,1.764706E-2,6.8292683E-3,-0E0,5.915493E-3,-7.5E-3,1.6363636E-2,-1.2631578E-2,-2.4375E-2],"categories":[],"categories_nodes":[],"categories_segments":[],"categories_sizes":[],"default_left":[0,0,0,0,0,0,0,0,0,0,0,0,0,0,0,0,0,0,0,0,0,0,0,0,0,0,0,0,0,0,0,0,0,0,0,0,0,0,0,0,0,0,0,0,0,0,0,0,0,0,0,0,0,0,0,0,0,0,0,0,0,0,0,0,0,0,0,0,0,0,0,0,0,0,0,0,0,0,0,0,0,0,0,0,0,0,0,0,0,0,0,0,0,0,0,0,0,0,0,0,0,0,0,0,0,0,0,0,0,0,0,0,0,0,0,0,0,0,0,0,0,0,0],"id":10,"left_children":[1,3,5,7,9,11,13,15,17,19,21,23,25,27,29,31,33,35,37,39,41,-1,43,45,47,49,51,53,-1,55,57,-1,59,-1,61,-1,63,65,67,-1,-1,-1,69,71,-1,-1,-1,73,-1,-1,-1,-1,-1,75,77,79,-1,81,-1,-1,-1,83,85,87,-1,89,-1,-1,91,93,-1,-1,-1,-1,-1,95,97,99,101,103,-1,-1,-1,-1,-1,-1,105,-1,-1,-1,-1,107,109,-1,-1,-1,111,-1,113,-1,-1,115,-1,117,-1,119,-1,-1,121,-1,-1,-1,-1,-1,-1,-1,-1,-1,-1,-1,-1,-1,-1],"loss_changes":[2.0281758E3,3.7010156E2,1.8060983E2,3.047461E1,3.9304752E1,2.8141922E1,1.1097714E2,9.984375E0,7.9658203E0,9.19585E0,4.664175E0,5.204468E0,1.620787E1,4.509765E1,1.5246651E1,1.2578125E0,1.0638184E1,1.3276367E0,8.450409E0,2.5766106E0,4.887184E0,0E0,3.221796E0,1.8333335E0,2.6072845E0,8.539516E0,4.785E0,5.548693E1,0E0,3.1615448E0,1.9405365E0,0E0,1.2033081E0,0E0,3.062378E0,0E0,1.3458252E0,1.9658508E0,5.0428696E0,0E0,0E0,0E0,1.8279796E0,1.0773106E0,0E0,0E0,0E0,3.476719E0,0E0,0E0,0E0,0E0,0E0,2.535328E1,2.8362774E1,4.649227E0,0E0,1.6844025E0,0E0,0E0,0E0,2.081787E0,3.5802002E0,1.1216736E0,0E0,2.16473E0,0E0,0E0,5.5199986E0,1.459002E0,0E0,0E0,0E0,0E0,0E0,1.9881482E0,1.3151932E1,5.8418837E0,3.3060417E0,1.6148963E0,0E0,0E0,0E0,0E0,0E0,0E0,1.4048977E1,0E0,0E0,0E0,0E0,2.959629E0,4.6899347E0,0E0,0E0,0E0,1.5528574E0,0E0,1.172364E1,0E0,0E0,1.8678474E0,0E0,1.0853497E0,0E0,3.613636E0,0E0,0E0,1.5862236E0,0E0,0E0,0E0,0E0,0E0,0E0,0E0,0E0,0E0,0E0,0E0,0E0,0E0,0E0],"parents":[2147483647,0,0,1,1,2,2,3,3,4,4,5,5,6,6,7,7,8,8,9,9,10,10,11,11,12,12,13,13,14,14,15,15,16,16,17,17,18,18,19,19,20,20,22,22,23,23,24,24,25,25,26,26,27,27,29,29,30,30,32,32,34,34,36,36,37,37,38,38,42,42,43,43,47,47,53,53,54,54,55,55,57,57,61,61,62,62,63,63,65,65,68,68,69,69,75,75,76,76,77,77,78,78,79,79,86,86,91,91,92,92,96,96,98,98,101,101,103,103,105,105,108,108],"right_children":[2,4,6,8,10,12,14,16,18,20,22,24,26,28,30,32,34,36,38,40,42,-1,44,46,48,50,52,54,-1,56,58,-1,60,-1,62,-1,64,66,68,-1,-1,-1,70,72,-1,-1,-1,74,-1,-1,-1,-1,-1,76,78,80,-1,82,-1,-1,-1,84,86,88,-1,90,-1,-1,92,94,-1,-1,-1,-1,-1,96,98,100,102,104,-1,-1,-1,-1,-1,-1,106,-1,-1,-1,-1,108,110,-1,-1,-1,112,-1,114,-1,-1,116,-1,118,-1,120,-1,-1,122,-1,-1,-1,-1,-1,-1,-1,-1,-1,-1,-1,-1,-1,-1],"split_conditions":[1E0,1E0,3E0,4E0,4E0,4E0,4E0,3E0,4E0,1E0,1E0,3E0,5E0,1E0,4E0,4E0,4E0,1E0,1E0,2E0,4E0,-1.12499995E-2,5E0,2E0,1E0,2E0,1E0,3E0,2.5799999E-2,3E0,1E0,-2.9231416E-2,4E0,-2.8374735E-2,3E0,-2.7092908E-2,5E0,1E0,3E0,3.75E-3,-1.4229249E-2,-1.26136355E-2,3E0,4E0,6.153846E-3,-1.2E-2,2.5E-3,4E0,-2.1660648E-2,-2.6086954E-2,-6.612903E-3,2.4999999E-2,-3.75E-3,2E0,4E0,1E0,9.530386E-3,3E0,1.4439251E-2,-2.91E-2,-2.5631066E-2,2E0,1E0,1E0,-2.0384615E-2,5E0,-2.6789667E-2,-2.186747E-2,1E0,3E0,-1.8749999E-2,6.6666664E-3,1.9772727E-2,-1.7399998E-2,3.75E-3,4E0,2E0,2E0,4E0,1E0,2.625E-2,1.4716981E-2,2.2499999E-2,-1.7419353E-2,-2.6695544E-2,-2.4174107E-2,5E0,-2.5771514E-2,-1.7777778E-2,-1.7922077E-2,-2.7631579E-2,4E0,5E0,-7.2289153E-4,-5.4545454E-3,5E-3,1E0,2.1818181E-2,4E0,9.2857145E-3,-2.4025973E-3,2E0,1.5638297E-2,1E0,-9.000001E-3,1E0,-2.4807692E-2,-8.888889E-3,1E0,5.7142857E-3,-1.375E-2,7.5E-3,2.3571428E-2,-1.4878706E-2,-6.566038E-3,1.764706E-2,6.8292683E-3,-0E0,5.915493E-3,-7.5E-3,1.6363636E-2,-1.2631578E-2,-2.4375E-2],"split_indices":[5,7,11,11,3,4,4,11,4,10,0,4,3,7,11,3,4,10,10,3,4,0,3,4,10,11,10,3,0,3,10,0,4,0,3,0,11,0,3,0,0,0,3,4,0,0,0,3,0,0,0,0,0,4,11,7,0,3,0,0,0,3,9,9,0,11,0,0,9,11,0,0,0,0,0,11,3,4,3,0,0,0,0,0,0,0,3,0,0,0,0,3,3,0,0,0,10,0,11,0,0,4,0,10,0,10,0,0,0,0,0,0,0,0,0,0,0,0,0,0,0,0,0],"split_type":[0,0,0,0,0,0,0,0,0,0,0,0,0,0,0,0,0,0,0,0,0,0,0,0,0,0,0,0,0,0,0,0,0,0,0,0,0,0,0,0,0,0,0,0,0,0,0,0,0,0,0,0,0,0,0,0,0,0,0,0,0,0,0,0,0,0,0,0,0,0,0,0,0,0,0,0,0,0,0,0,0,0,0,0,0,0,0,0,0,0,0,0,0,0,0,0,0,0,0,0,0,0,0,0,0,0,0,0,0,0,0,0,0,0,0,0,0,0,0,0,0,0,0],"sum_hessian":[2.5028E4,2.2018E4,3.01E3,2.1279E4,7.39E2,6.98E2,2.312E3,1.8821E4,2.458E3,6.43E2,9.6E1,4.67E2,2.31E2,1.479E3,8.33E2,1.3682E4,5.139E3,1.776E3,6.82E2,2.59E2,3.84E2,7E0,8.9E1,3.5E1,4.32E2,2.07E2,2.4E1,1.43E3,4.9E1,4.93E2,3.4E2,1.3075E4,6.07E2,3.783E3,1.356E3,1E3,7.76E2,3.83E2,2.99E2,7E0,2.52E2,8.7E1,2.97E2,5.1E1,3.8E1,2.4E1,1.1E1,1.56E2,2.76E2,2.2E1,1.85E2,1.7E1,7E0,6.97E2,7.33E2,1.32E2,3.61E2,1.27E2,2.13E2,2.99E2,3.08E2,8.37E2,5.19E2,6.99E2,7.7E1,1.13E2,2.7E2,1.65E2,1.34E2,2.9E2,7E0,8E0,4.3E1,1.49E2,7E0,5.3E1,6.44E2,5.02E2,2.31E2,1.25E2,7E0,5.2E1,7.5E1,3E1,8.07E2,4.47E2,7.2E1,6.73E2,2.6E1,7.6E1,3.7E1,9.1E1,4.3E1,8.2E1,2.08E2,2.9E1,2.4E1,1E1,6.34E2,4.1E1,4.61E2,1.38E2,9.3E1,1.16E2,9E0,2.1E1,5.1E1,2.6E1,6.5E1,2E1,2.3E1,1.1E1,1.3E1,3.7E2,2.64E2,1.6E1,1.22E2,4.6E1,7E1,1.1E1,1E1,1.8E1,4.7E1],"tree_param":{"num_deleted":"0","num_feature":"12","num_nodes":"123","size_leaf_vector":"1"}},{"base_weights":[-8.104908E-1,-9.189299E-1,-9E-3,-9.441615E-1,-2.1279374E-1,-4.5714286E-1,1.1857877E-1,-9.740288E-1,-8.9041275E-1,-3.1390134E-1,4.7959185E-1,-5.950226E-1,-1.8303572E-1,-3.583278E-2,3.987952E-1,-7.5641024E-1,-9.7519934E-1,-9.2420715E-1,-7.9913294E-1,-3.2779455E-1,2.625E-2,2.0555556E-2,2.2222222E-1,-7.5E-3,-6.168675E-1,-3.010204E-1,1.8620688E-2,-6.652949E-2,2.5799999E-2,2.915811E-1,5.494186E-1,-2.9166665E-2,-5.5813956E-1,-2.9441042E-2,-9.432529E-1,-9.3084705E-1,-2.3292681E-2,-8.497689E-1,-7.137356E-1,-2.806236E-1,-4.2523363E-1,-1.12499995E-2,1.0263158E-2,-2.8333332E-2,-1.8015074E-2,-2.625E-2,-2.1965317E-1,4.5801526E-1,-1.1822289E-1,2.5384615E-3,1.0977654E-2,5.816327E-1,1.0588235E-2,-2.1E-2,-6.4285714E-3,-2.8651522E-2,-2.3823528E-2,-2.8358879E-2,-8.950419E-1,-8.860911E-1,-2.348387E-2,-7.6117104E-1,-4.7328246E-1,-2.9776675E-1,-3.8297873E-3,-1.7068965E-2,-3.6942676E-1,-5.5900617E-3,-1.8461538E-2,3.853211E-1,2.347826E-2,-2.8926906E-1,4.2274054E-2,1.564516E-2,2.0366972E-2,-2.7476415E-2,-7.9787236E-1,-2.7280832E-2,-2.3518518E-2,-2.5248226E-2,-6.079295E-1,6.25E-4,-7.5E-1,9.000001E-3,-9.365482E-3,3.75E-3,-1.18E-2,8.636363E-3,1.5681816E-2,2.2499999E-2,-3.085443E-1,-8.125E-2,3.2850242E-1,-1.0909091E-2,-2.4375E-2,-2.0591715E-2,-3.7288135E-1,-2.5344826E-2,-1.5555555E-2,-1.2142857E-2,-4.9411766E-3,-3.378016E-3,8.333333E-4,6.904762E-3,1.4268292E-2,-4.7999998E-3,-1.5428572E-2],"categories":[],"categories_nodes":[],"categories_segments":[],"categories_sizes":[],"default_left":[0,0,0,0,0,0,0,0,0,0,0,0,0,0,0,0,0,0,0,0,0,0,0,0,0,0,0,0,0,0,0,0,0,0,0,0,0,0,0,0,0,0,0,0,0,0,0,0,0,0,0,0,0,0,0,0,0,0,0,0,0,0,0,0,0,0,0,0,0,0,0,0,0,0,0,0,0,0,0,0,0,0,0,0,0,0,0,0,0,0,0,0,0,0,0,0,0,0,0,0,0,0,0,0,0,0,0],"id":11,"left_children":[1,3,5,7,9,11,13,15,17,19,21,23,25,27,29,31,33,35,37,39,-1,-1,41,-1,43,45,-1,47,-1,49,51,-1,53,-1,55,57,-1,59,61,63,65,-1,-1,-1,-1,-1,67,69,71,-1,-1,73,-1,-1,-1,-1,-1,-1,75,77,-1,79,81,83,-1,-1,85,-1,-1,87,-1,89,91,-1,-1,-1,93,-1,-1,-1,95,-1,97,-1,-1,-1,-1,-1,-1,-1,99,101,103,-1,-1,-1,105,-1,-1,-1,-1,-1,-1,-1,-1,-1,-1],"loss_changes":[2.1871562E3,3.9472852E2,1.7157475E2,3.348828E1,5.377472E1,2.5023987E1,1.0108986E2,2.7626953E0,2.2878906E1,1.1337135E1,5.0332565E0,3.177124E0,2.1428154E1,4.149839E1,1.3243423E1,2.7949219E0,1.7685547E0,4.753418E0,8.370483E0,2.9234238E0,0E0,0E0,3.3501463E0,0E0,1.6575775E0,8.9616165E0,0E0,3.9588547E1,0E0,7.4620056E0,1.9720078E0,0E0,1.9475088E0,0E0,3.1793213E0,1.9145508E0,0E0,2.4639282E0,8.525024E0,1.1393929E0,1.5063515E0,0E0,0E0,0E0,0E0,0E0,2.166319E0,2.789526E0,3.6468998E1,0E0,0E0,1.3653717E0,0E0,0E0,0E0,0E0,0E0,0E0,2.4138184E0,1.2693481E0,0E0,7.488098E0,1.792732E1,3.5664673E0,0E0,0E0,1.9049149E0,0E0,0E0,1.3089371E0,0E0,1.3112095E1,2.4280966E1,0E0,0E0,0E0,1.4957733E0,0E0,0E0,0E0,3.93042E0,0E0,1.4058113E0,0E0,0E0,0E0,0E0,0E0,0E0,0E0,8.680077E0,1.6438057E0,2.8852196E0,0E0,0E0,0E0,1.6937532E0,0E0,0E0,0E0,0E0,0E0,0E0,0E0,0E0,0E0,0E0],"parents":[2147483647,0,0,1,1,2,2,3,3,4,4,5,5,6,6,7,7,8,8,9,9,10,10,11,11,12,12,13,13,14,14,15,15,16,16,17,17,18,18,19,19,22,22,24,24,25,25,27,27,29,29,30,30,32,32,34,34,35,35,37,37,38,38,39,39,40,40,46,46,47,47,48,48,51,51,58,58,59,59,61,61,62,62,63,63,66,66,69,69,71,71,72,72,76,76,80,80,82,82,90,90,91,91,92,92,96,96],"right_children":[2,4,6,8,10,12,14,16,18,20,22,24,26,28,30,32,34,36,38,40,-1,-1,42,-1,44,46,-1,48,-1,50,52,-1,54,-1,56,58,-1,60,62,64,66,-1,-1,-1,-1,-1,68,70,72,-1,-1,74,-1,-1,-1,-1,-1,-1,76,78,-1,80,82,84,-1,-1,86,-1,-1,88,-1,90,92,-1,-1,-1,94,-1,-1,-1,96,-1,98,-1,-1,-1,-1,-1,-1,-1,100,102,104,-1,-1,-1,106,-1,-1,-1,-1,-1,-1,-1,-1,-1,-1],"split_conditions":[1E0,1E0,3E0,3E0,4E0,4E0,4E0,2E0,4E0,1E0,5E0,3E0,4E0,1E0,4E0,1E0,1E0,5E0,3E0,4E0,2.625E-2,2.0555556E-2,4E0,-7.5E-3,2E0,2E0,1.8620688E-2,2E0,2.5799999E-2,3E0,5E0,-2.9166665E-2,1E0,-2.9441042E-2,1E0,4E0,-2.3292681E-2,4E0,1E0,1E0,4E0,-1.12499995E-2,1.0263158E-2,-2.8333332E-2,-1.8015074E-2,-2.625E-2,1E0,4E0,3E0,2.5384615E-3,1.0977654E-2,4E0,1.0588235E-2,-2.1E-2,-6.4285714E-3,-2.8651522E-2,-2.3823528E-2,-2.8358879E-2,3E0,1E0,-2.348387E-2,1E0,5E0,2E0,-3.8297873E-3,-1.7068965E-2,1E0,-5.5900617E-3,-1.8461538E-2,4E0,2.347826E-2,2E0,4E0,1.564516E-2,2.0366972E-2,-2.7476415E-2,2E0,-2.7280832E-2,-2.3518518E-2,-2.5248226E-2,4E0,6.25E-4,4E0,9.000001E-3,-9.365482E-3,3.75E-3,-1.18E-2,8.636363E-3,1.5681816E-2,2.2499999E-2,4E0,5E0,4E0,-1.0909091E-2,-2.4375E-2,-2.0591715E-2,4E0,-2.5344826E-2,-1.5555555E-2,-1.2142857E-2,-4.9411766E-3,-3.378016E-3,8.333333E-4,6.904762E-3,1.4268292E-2,-4.7999998E-3,-1.5428572E-2],"split_indices":[5,7,11,11,3,4,4,3,4,9,3,4,3,7,11,0,2,11,3,11,0,0,4,0,11,11,0,4,0,3,11,0,2,0,0,11,0,11,9,2,4,0,0,0,0,0,0,3,3,0,0,3,0,0,0,0,0,0,3,2,0,2,3,3,0,0,0,0,0,11,0,3,11,0,0,0,4,0,0,0,11,0,11,0,0,0,0,0,0,0,11,3,3,0,0,0,3,0,0,0,0,0,0,0,0,0,0],"split_type":[0,0,0,0,0,0,0,0,0,0,0,0,0,0,0,0,0,0,0,0,0,0,0,0,0,0,0,0,0,0,0,0,0,0,0,0,0,0,0,0,0,0,0,0,0,0,0,0,0,0,0,0,0,0,0,0,0,0,0,0,0,0,0,0,0,0,0,0,0,0,0,0,0,0,0,0,0,0,0,0,0,0,0,0,0,0,0,0,0,0,0,0,0,0,0,0,0,0,0,0,0,0,0,0,0,0,0],"sum_hessian":[2.5164E4,2.2165E4,2.999E3,2.14E4,7.65E2,6.64E2,2.335E3,1.3745E4,7.655E3,6.68E2,9.7E1,4.41E2,2.23E2,1.506E3,8.29E2,7.7E1,1.3668E4,5.58E3,2.075E3,6.61E2,7E0,5.3E1,4.4E1,2.7E1,4.14E2,1.95E2,2.8E1,1.457E3,4.9E1,4.86E2,3.43E2,3.5E1,4.2E1,1.1431E4,2.237E3,5.335E3,2.45E2,1.297E3,7.78E2,4.48E2,2.13E2,7E0,3.7E1,1.7E1,3.97E2,2.3E1,1.72E2,1.3E2,1.327E3,1.29E2,3.57E2,2.93E2,5E1,2.9E1,1.3E1,2.068E3,1.69E2,3.783E3,1.552E3,8.33E2,4.64E2,6.48E2,1.3E2,4.02E2,4.6E1,5.7E1,1.56E2,1.6E2,1.2E1,1.08E2,2.2E1,6.42E2,6.85E2,1.85E2,1.08E2,1.271E3,2.81E2,6.72E2,1.61E2,4.22E2,2.26E2,4.7E1,8.3E1,9E0,3.93E2,7E0,1.49E2,6.5E1,4.3E1,1.1E1,6.31E2,4.79E2,2.06E2,1E1,2.71E2,1.68E2,5.8E1,5.7E1,2.6E1,3.77E2,2.54E2,3.72E2,1.07E2,1.25E2,8.1E1,2.4E1,3.4E1],"tree_param":{"num_deleted":"0","num_feature":"12","num_nodes":"107","size_leaf_vector":"1"}},{"base_weights":[-8.146173E-1,-9.1791654E-1,-4.8559945E-2,-9.6308553E-1,-8.416262E-1,-4.6906474E-1,7.897033E-2,-9.771155E-1,-9.289228E-1,-9.049536E-1,-6.981804E-1,-5.995717E-1,-2.0087336E-1,-9.255533E-2,3.9775562E-1,-2.9562807E-2,-2.8369408E-2,-5.208333E-1,-9.3356556E-1,-9.309073E-1,-8.403157E-1,-7.356322E-1,-5.5492425E-1,-2.3309352E-2,-5.2279633E-1,-3.0882353E-1,1.9615384E-2,-5.4092526E-1,1.1560693E-2,2.6865673E-1,5.778443E-1,-1.9024389E-2,3.75E-3,-9.3786454E-1,-2.103896E-2,-9.3674153E-1,-2.4307692E-2,-2.6465826E-2,-7.518657E-1,-7.7904326E-1,-6.510949E-1,-3.2124352E-1,-6.875E-1,4.090909E-3,-5.681818E-1,-2.0307692E-2,-1.3571429E-1,-1.875E-3,-1.7030073E-2,-1.6666667E-1,1.6360857E-1,-3.4999999E-3,3.2439023E-1,3.4615386E-1,5.9546924E-1,-2.9424405E-2,-9.1631955E-1,-2.8465396E-2,-2.6840316E-2,-7.7800405E-1,-1.3695653E-2,-1.3846153E-2,-7.8811574E-1,-2.0337269E-2,-4.7311828E-1,-2.55E-2,-2.5862068E-1,-2.1758242E-2,-1.5468749E-2,-1.7640846E-2,-9.5999995E-3,-2.7857142E-2,-1.4173228E-3,4.1666666E-1,-2.0650096E-1,1.1210762E-2,4.8803827E-1,5.046729E-3,3.7828946E-1,1.5789473E-2,-3.75E-3,1.6165802E-2,2.0512821E-2,-8.818083E-1,-2.9813895E-2,-8.018223E-1,-1.698113E-2,-8.069307E-1,-2.1444445E-2,-1.690141E-2,-5.217391E-3,-5.2272724E-3,-1.5348837E-2,4E-3,1.772727E-2,2.7272727E-2,-2.300195E-1,9.749999E-3,-5.8968057E-4,2.1E-2,1.3499999E-2,1.0045249E-2,1.4642856E-2,-8.942428E-1,-7.949791E-1,-2.4410376E-2,-1.3125E-2,-2.9117646E-2,-2.3186682E-2,-9.829352E-3,-2.9864253E-3,-2.5900451E-2,-2.8846152E-2,-9.090909E-3,-2.6086954E-2],"categories":[],"categories_nodes":[],"categories_segments":[],"categories_sizes":[],"default_left":[0,0,0,0,0,0,0,0,0,0,0,0,0,0,0,0,0,0,0,0,0,0,0,0,0,0,0,0,0,0,0,0,0,0,0,0,0,0,0,0,0,0,0,0,0,0,0,0,0,0,0,0,0,0,0,0,0,0,0,0,0,0,0,0,0,0,0,0,0,0,0,0,0,0,0,0,0,0,0,0,0,0,0,0,0,0,0,0,0,0,0,0,0,0,0,0,0,0,0,0,0,0,0,0,0,0,0,0,0,0,0,0,0,0,0],"id":12,"left_children":[1,3,5,7,9,11,13,15,17,19,21,23,25,27,29,-1,-1,31,33,35,37,39,41,-1,43,45,-1,47,49,51,53,-1,-1,55,-1,57,-1,-1,59,61,63,65,67,-1,69,-1,71,-1,-1,73,75,-1,77,79,81,-1,83,-1,-1,85,-1,-1,87,-1,89,-1,91,-1,-1,-1,-1,-1,-1,93,95,97,99,-1,101,-1,-1,-1,-1,103,-1,105,-1,107,-1,-1,-1,-1,-1,-1,-1,-1,109,-1,-1,-1,-1,-1,-1,111,113,-1,-1,-1,-1,-1,-1,-1,-1,-1,-1],"loss_changes":[1.9878594E3,7.546875E1,1.6016754E2,5.751953E0,7.42207E1,2.420514E1,1.25363045E2,1.6396484E0,7.2175293E0,8.801758E0,1.3155029E1,5.9545593E0,2.1331093E1,6.9609856E1,1.8490654E1,0E0,0E0,3.5919714E0,3.3552246E0,2.1037598E0,5.4375E0,6.8361816E0,1.6136795E1,0E0,9.9199295E0,1.2907303E1,0E0,3.559906E0,3.284427E1,1.0109821E1,1.1577835E0,0E0,0E0,2.75E0,0E0,1.123291E0,0E0,0E0,3.7826538E0,3.4299316E0,2.9482422E0,6.1708317E0,1.8075256E0,0E0,1.3288879E0,0E0,9.776321E0,0E0,0E0,1.3052103E1,3.232984E1,0E0,3.3874245E0,2.2727733E0,1.1759644E0,0E0,6.1853027E0,0E0,0E0,2.0250244E0,0E0,0E0,1.1871338E0,0E0,2.41366E0,0E0,3.6254587E0,0E0,0E0,0E0,0E0,0E0,0E0,1.6984849E0,1.3931105E1,4.3261943E0,1.3700981E0,0E0,1.2868958E0,0E0,0E0,0E0,0E0,1.2713623E0,0E0,1.5403748E0,0E0,4.876648E0,0E0,0E0,0E0,0E0,0E0,0E0,0E0,0E0,6.501671E0,0E0,0E0,0E0,0E0,0E0,0E0,2.4923096E0,8.506027E0,0E0,0E0,0E0,0E0,0E0,0E0,0E0,0E0,0E0,0E0],"parents":[2147483647,0,0,1,1,2,2,3,3,4,4,5,5,6,6,7,7,8,8,9,9,10,10,11,11,12,12,13,13,14,14,17,17,18,18,19,19,20,20,21,21,22,22,24,24,25,25,27,27,28,28,29,29,30,30,33,33,35,35,38,38,39,39,40,40,41,41,42,42,44,44,46,46,49,49,50,50,52,52,53,53,54,54,56,56,59,59,62,62,64,64,66,66,73,73,74,74,75,75,76,76,78,78,83,83,85,85,87,87,96,96,103,103,104,104],"right_children":[2,4,6,8,10,12,14,16,18,20,22,24,26,28,30,-1,-1,32,34,36,38,40,42,-1,44,46,-1,48,50,52,54,-1,-1,56,-1,58,-1,-1,60,62,64,66,68,-1,70,-1,72,-1,-1,74,76,-1,78,80,82,-1,84,-1,-1,86,-1,-1,88,-1,90,-1,92,-1,-1,-1,-1,-1,-1,94,96,98,100,-1,102,-1,-1,-1,-1,104,-1,106,-1,108,-1,-1,-1,-1,-1,-1,-1,-1,110,-1,-1,-1,-1,-1,-1,112,114,-1,-1,-1,-1,-1,-1,-1,-1,-1,-1],"split_conditions":[1E0,3E0,3E0,1E0,4E0,4E0,4E0,1E0,2E0,1E0,4E0,1E0,5E0,1E0,4E0,-2.9562807E-2,-2.8369408E-2,1E0,1E0,5E0,4E0,4E0,5E0,-2.3309352E-2,3E0,1E0,1.9615384E-2,2E0,3E0,1E0,1E0,-1.9024389E-2,3.75E-3,4E0,-2.103896E-2,1E0,-2.4307692E-2,-2.6465826E-2,5E0,2E0,1E0,1E0,1E0,4.090909E-3,4E0,-2.0307692E-2,2E0,-1.875E-3,-1.7030073E-2,2E0,4E0,-3.4999999E-3,3E0,4E0,4E0,-2.9424405E-2,6E0,-2.8465396E-2,-2.6840316E-2,5E0,-1.3695653E-2,-1.3846153E-2,1E0,-2.0337269E-2,3E0,-2.55E-2,5E0,-2.1758242E-2,-1.5468749E-2,-1.7640846E-2,-9.5999995E-3,-2.7857142E-2,-1.4173228E-3,4E0,2E0,2E0,2E0,5.046729E-3,4E0,1.5789473E-2,-3.75E-3,1.6165802E-2,2.0512821E-2,4E0,-2.9813895E-2,1E0,-1.698113E-2,1E0,-2.1444445E-2,-1.690141E-2,-5.217391E-3,-5.2272724E-3,-1.5348837E-2,4E-3,1.772727E-2,2.7272727E-2,4E0,9.749999E-3,-5.8968057E-4,2.1E-2,1.3499999E-2,1.0045249E-2,1.4642856E-2,3E0,5E0,-2.4410376E-2,-1.3125E-2,-2.9117646E-2,-2.3186682E-2,-9.829352E-3,-2.9864253E-3,-2.5900451E-2,-2.8846152E-2,-9.090909E-3,-2.6086954E-2],"split_indices":[5,11,11,0,4,4,4,2,3,1,3,1,3,1,11,0,0,1,1,11,11,11,3,0,4,1,0,4,3,1,1,0,0,4,0,0,0,0,3,3,1,0,1,0,3,0,11,0,0,4,11,0,3,3,3,0,4,0,0,11,0,0,2,0,3,0,11,0,0,0,0,0,0,11,3,4,4,0,3,0,0,0,0,3,0,0,0,0,0,0,0,0,0,0,0,0,11,0,0,0,0,0,0,3,3,0,0,0,0,0,0,0,0,0,0],"split_type":[0,0,0,0,0,0,0,0,0,0,0,0,0,0,0,0,0,0,0,0,0,0,0,0,0,0,0,0,0,0,0,0,0,0,0,0,0,0,0,0,0,0,0,0,0,0,0,0,0,0,0,0,0,0,0,0,0,0,0,0,0,0,0,0,0,0,0,0,0,0,0,0,0,0,0,0,0,0,0,0,0,0,0,0,0,0,0,0,0,0,0,0,0,0,0,0,0,0,0,0,0,0,0,0,0,0,0,0,0,0,0,0,0,0,0],"sum_hessian":[2.512E4,2.2135E4,2.985E3,1.3896E4,8.239E3,6.94E2,2.291E3,9.831E3,4.065E3,5.712E3,2.527E3,4.66E2,2.28E2,1.49E3,8.01E2,7.753E3,2.078E3,4.7E1,4.018E3,4.066E3,1.646E3,2E3,5.27E2,1.38E2,3.28E2,2.03E2,2.5E1,2.8E2,1.21E3,4.68E2,3.33E2,4E1,7E0,3.942E3,7.6E1,3.872E3,1.94E2,1.111E3,5.35E2,1.316E3,6.84E2,1.92E2,3.35E2,2.1E1,3.07E2,6.4E1,1.39E2,1.5E1,2.65E2,5.57E2,6.53E2,5.9E1,4.09E2,2.5E1,3.08E2,1.302E3,2.64E3,2.99E3,8.82E2,4.9E2,4.5E1,3.8E1,1.278E3,5.92E2,9.2E1,1.9E1,1.73E2,2.72E2,6.3E1,2.83E2,2.4E1,1.3E1,1.26E2,3.5E1,5.22E2,4.45E2,2.08E2,1.06E2,3.03E2,1.8E1,7E0,1.92E2,1.16E2,1.835E3,8.05E2,4.38E2,5.2E1,1.009E3,2.69E2,7E1,2.2E1,1.31E2,4.2E1,1.4E1,2.1E1,1E1,5.12E2,3.9E1,4.06E2,2.9E1,1.79E2,2.2E2,8.3E1,1.597E3,2.38E2,4.23E2,1.5E1,1.69E2,8.4E2,2.92E2,2.2E2,1.104E3,4.93E2,3.2E1,2.06E2],"tree_param":{"num_deleted":"0","num_feature":"12","num_nodes":"115","size_leaf_vector":"1"}},{"base_weights":[-8.128792E-1,-9.3838507E-1,-6.377706E-1,-9.4971025E-1,-8.290155E-2,-7.478779E-1,-4.439497E-1,-2.9709263E-2,-9.3170977E-1,-3.272727E-1,1.438849E-2,-7.952158E-1,-1.9281663E-1,-5.516745E-1,-1.5642995E-1,-2.8606156E-2,-8.825989E-1,-1.2391304E-2,3E-3,-1.8867925E-1,4.137931E-3,-8.5350156E-1,-6.9661456E-1,1.6216215E-1,-2.8639618E-1,-6.707188E-1,-2.9683974E-1,1.3623978E-3,-5.307443E-1,-8.9898634E-1,-6.9076306E-1,-9.782609E-3,1.8749999E-2,-8.82252E-1,-7.664609E-1,-7.5360644E-1,-5.2272725E-1,-1.8749999E-2,2.2115384E-1,-4.375E-1,-5.286885E-3,-6.785714E-1,2.3529412E-1,-1.0200364E-1,-6.1242604E-1,-1.6421053E-1,3.0384615E-1,-6.977612E-1,5.4761904E-1,-8.715971E-1,-2.968085E-2,-2.264151E-1,-2.4365481E-2,-8.653537E-1,-2.9366197E-2,-5.392157E-1,-2.6086954E-2,-7.356913E-1,-2.7150838E-2,-1.6525424E-1,-7.7151334E-1,8.152174E-3,-4.6153846E-3,-1.4355828E-2,2.1428573E-3,-3.883495E-1,-6.9503945E-1,1.5E-2,-3.75E-3,-7.879925E-2,-2.4705881E-2,-7.009646E-1,3.9285713E-1,3.9583334E-1,-2.2663552E-1,2.1641791E-1,3.9370078E-1,-2.4060912E-2,-4.027778E-1,2.222222E-2,5.6249998E-3,-8.153061E-1,-9.1591835E-1,1.2E-2,-2.275862E-2,-2.1338027E-2,-2.6229229E-2,-0E0,-5.5369127E-1,-4.6153846E-3,-7.4011666E-1,-2.742857E-3,-3.7096775E-1,-2.5538461E-2,-1.972028E-2,-4.7560975E-1,-1.3636363E-3,-6.711712E-1,-2.5791856E-2,-7.075472E-4,-3.4472048E-3,-2.2468084E-2,-5.4545456E-1,-3E-3,1.8947367E-2,6.9999998E-3,1.8947367E-2,-2.7272727E-2,-2.0813397E-1,9.210526E-3,-2.857143E-1,1.7608695E-2,8.414634E-3,-0E0,-2.175E-2,-2.1476014E-2,-2.556338E-2,-1.7307691E-2,-9.225E-1,-1.609756E-2,-2.75E-2,-1.5529412E-2,-7.525703E-1,-1.9459458E-2,1.1538462E-3,-6.315789E-3,-1.640625E-2,-6.9680434E-1,-1.6433822E-2,4.5454547E-2,-2.3035714E-2,-2.7450982E-1,-3.109756E-3,-1.5E-2,3.75E-3,-1.8749999E-2,5.769231E-3,-2.8920863E-2,-2.590909E-2,-2.8101265E-2,-2.224475E-2,-2.8965516E-2,-2.0701194E-2,-1.2499999E-2,1.6363636E-2,-6.9527896E-3,-2.0869564E-2],"categories":[],"categories_nodes":[],"categories_segments":[],"categories_sizes":[],"default_left":[0,0,0,0,0,0,0,0,0,0,0,0,0,0,0,0,0,0,0,0,0,0,0,0,0,0,0,0,0,0,0,0,0,0,0,0,0,0,0,0,0,0,0,0,0,0,0,0,0,0,0,0,0,0,0,0,0,0,0,0,0,0,0,0,0,0,0,0,0,0,0,0,0,0,0,0,0,0,0,0,0,0,0,0,0,0,0,0,0,0,0,0,0,0,0,0,0,0,0,0,0,0,0,0,0,0,0,0,0,0,0,0,0,0,0,0,0,0,0,0,0,0,0,0,0,0,0,0,0,0,0,0,0,0,0,0,0,0,0,0,0,0,0,0,0,0,0],"id":13,"left_children":[1,3,5,7,9,11,13,-1,15,17,19,21,23,25,27,-1,29,-1,-1,31,-1,33,35,37,39,41,43,45,47,49,51,-1,-1,53,55,57,59,-1,61,63,-1,65,67,69,71,73,75,77,79,81,-1,83,-1,85,-1,87,-1,89,-1,91,93,-1,-1,-1,-1,95,97,-1,-1,99,-1,101,103,105,107,109,111,-1,113,-1,-1,115,117,-1,-1,-1,-1,-1,119,-1,121,-1,123,-1,-1,125,-1,127,-1,-1,-1,-1,129,-1,-1,-1,-1,-1,131,-1,133,-1,-1,135,-1,-1,-1,-1,137,-1,-1,-1,139,-1,-1,-1,-1,141,-1,143,-1,145,-1,-1,-1,-1,-1,-1,-1,-1,-1,-1,-1,-1,-1,-1,-1],"loss_changes":[5.5364453E2,1.4222559E2,2.2443213E2,9.670898E0,4.5932617E0,1.7628613E2,1.1816864E2,0E0,9.943359E0,2.0569167E0,3.5131881E0,3.4962402E1,1.7619164E1,8.4045715E1,6.1545353E1,0E0,9.152832E0,0E0,0E0,6.129512E0,0E0,9.043213E0,2.2439087E1,5.2926197E0,6.897827E0,1.3620422E1,5.4415543E1,3.6810905E1,5.60345E1,6.2197266E0,1.3854965E1,0E0,0E0,3.9091797E0,2.2305054E1,4.0353394E0,5.0742935E1,0E0,2.0146327E0,3.7090836E0,0E0,8.696228E0,1.6838236E0,9.126776E0,3.0359528E1,1.6696056E1,1.9573135E0,7.9200287E0,2.7820768E0,4.751953E0,0E0,1.7972673E1,0E0,2.810669E0,0E0,2.3884735E0,0E0,3.8900146E0,0E0,3.5502E0,2.509552E0,0E0,0E0,0E0,0E0,3.060254E0,6.3963623E0,0E0,0E0,1.0599089E0,0E0,1.91156E0,3.3575187E0,1.6914477E0,5.214918E0,6.1837807E0,2.614006E0,0E0,9.344444E0,0E0,0E0,2.9768677E0,2.2009277E0,0E0,0E0,0E0,0E0,0E0,1.3584213E0,0E0,3.885437E0,0E0,7.0737715E0,0E0,0E0,1.4339504E0,0E0,4.532898E0,0E0,0E0,0E0,0E0,1.01542225E1,0E0,0E0,0E0,0E0,0E0,2.8702278E0,0E0,1.9107143E0,0E0,0E0,4.0865383E0,0E0,0E0,0E0,0E0,2.10083E0,0E0,0E0,0E0,2.2817993E0,0E0,0E0,0E0,0E0,1.6658936E0,0E0,5.310606E0,0E0,4.4297695E0,0E0,0E0,0E0,0E0,0E0,0E0,0E0,0E0,0E0,0E0,0E0,0E0,0E0,0E0,0E0],"parents":[2147483647,0,0,1,1,2,2,3,3,4,4,5,5,6,6,8,8,9,9,10,10,11,11,12,12,13,13,14,14,16,16,19,19,21,21,22,22,23,23,24,24,25,25,26,26,27,27,28,28,29,29,30,30,33,33,34,34,35,35,36,36,38,38,39,39,41,41,42,42,43,43,44,44,45,45,46,46,47,47,48,48,49,49,51,51,53,53,55,55,57,57,59,59,60,60,65,65,66,66,69,69,71,71,72,72,73,73,74,74,75,75,76,76,78,78,81,81,82,82,88,88,90,90,92,92,95,95,97,97,102,102,108,108,110,110,113,113,118,118,122,122,127,127,129,129,131,131],"right_children":[2,4,6,8,10,12,14,-1,16,18,20,22,24,26,28,-1,30,-1,-1,32,-1,34,36,38,40,42,44,46,48,50,52,-1,-1,54,56,58,60,-1,62,64,-1,66,68,70,72,74,76,78,80,82,-1,84,-1,86,-1,88,-1,90,-1,92,94,-1,-1,-1,-1,96,98,-1,-1,100,-1,102,104,106,108,110,112,-1,114,-1,-1,116,118,-1,-1,-1,-1,-1,120,-1,122,-1,124,-1,-1,126,-1,128,-1,-1,-1,-1,130,-1,-1,-1,-1,-1,132,-1,134,-1,-1,136,-1,-1,-1,-1,138,-1,-1,-1,140,-1,-1,-1,-1,142,-1,144,-1,146,-1,-1,-1,-1,-1,-1,-1,-1,-1,-1,-1,-1,-1,-1,-1],"split_conditions":[3E0,1E0,3E0,2E0,1E0,1E0,4E0,-2.9709263E-2,4E0,3E0,1E0,4E0,1E0,4E0,1E0,-2.8606156E-2,5E0,-1.2391304E-2,3E-3,3E0,4.137931E-3,4E0,4E0,3E0,1E0,1E0,1E0,4E0,1E0,6E0,1E0,-9.782609E-3,1.8749999E-2,1E0,1E0,1E0,1E0,-1.8749999E-2,5E0,5E0,-5.286885E-3,2E0,1E0,6E0,1E0,2E0,5E0,1E0,5E0,1E0,-2.968085E-2,1E0,-2.4365481E-2,2E0,-2.9366197E-2,2E0,-2.6086954E-2,2E0,-2.7150838E-2,5E0,1E0,8.152174E-3,-4.6153846E-3,-1.4355828E-2,2.1428573E-3,4E0,1E0,1.5E-2,-3.75E-3,1E0,-2.4705881E-2,1E0,1E0,5E0,3E0,4E0,1E0,-2.4060912E-2,5E0,2.222222E-2,5.6249998E-3,1E0,2E0,1.2E-2,-2.275862E-2,-2.1338027E-2,-2.6229229E-2,-0E0,1E0,-4.6153846E-3,2E0,-2.742857E-3,1E0,-2.5538461E-2,-1.972028E-2,1E0,-1.3636363E-3,4E0,-2.5791856E-2,-7.075472E-4,-3.4472048E-3,-2.2468084E-2,5E0,-3E-3,1.8947367E-2,6.9999998E-3,1.8947367E-2,-2.7272727E-2,5E0,9.210526E-3,1E0,1.7608695E-2,8.414634E-3,1E0,-2.175E-2,-2.1476014E-2,-2.556338E-2,-1.7307691E-2,1E0,-1.609756E-2,-2.75E-2,-1.5529412E-2,3E0,-1.9459458E-2,1.1538462E-3,-6.315789E-3,-1.640625E-2,3E0,-1.6433822E-2,1E0,-2.3035714E-2,5E0,-3.109756E-3,-1.5E-2,3.75E-3,-1.8749999E-2,5.769231E-3,-2.8920863E-2,-2.590909E-2,-2.8101265E-2,-2.224475E-2,-2.8965516E-2,-2.0701194E-2,-1.2499999E-2,1.6363636E-2,-6.9527896E-3,-2.0869564E-2],"split_indices":[11,7,3,11,0,7,11,0,4,3,10,11,0,4,0,0,3,0,0,3,0,4,4,4,10,7,0,4,7,4,0,0,0,0,0,0,0,0,11,11,0,4,0,4,7,4,3,9,3,0,0,10,0,4,0,3,0,3,0,11,10,0,0,0,0,3,0,0,0,10,0,9,10,3,4,3,10,0,3,0,0,10,3,0,0,0,0,0,8,0,4,0,10,0,0,10,0,3,0,0,0,0,3,0,0,0,0,0,3,0,10,0,0,10,0,0,0,0,10,0,0,0,4,0,0,0,0,4,0,10,0,11,0,0,0,0,0,0,0,0,0,0,0,0,0,0,0],"split_type":[0,0,0,0,0,0,0,0,0,0,0,0,0,0,0,0,0,0,0,0,0,0,0,0,0,0,0,0,0,0,0,0,0,0,0,0,0,0,0,0,0,0,0,0,0,0,0,0,0,0,0,0,0,0,0,0,0,0,0,0,0,0,0,0,0,0,0,0,0,0,0,0,0,0,0,0,0,0,0,0,0,0,0,0,0,0,0,0,0,0,0,0,0,0,0,0,0,0,0,0,0,0,0,0,0,0,0,0,0,0,0,0,0,0,0,0,0,0,0,0,0,0,0,0,0,0,0,0,0,0,0,0,0,0,0,0,0,0,0,0,0,0,0,0,0,0,0],"sum_hessian":[2.5218E4,1.4687E4,1.0531E4,1.4495E4,1.92E2,6.714E3,3.817E3,4.436E3,1.0059E4,5.4E1,1.38E2,6.186E3,5.28E2,2.776E3,1.041E3,6.951E3,3.108E3,4.5E1,9E0,5.2E1,8.6E1,3.883E3,2.303E3,1.1E2,4.18E2,1.891E3,8.85E2,7.33E2,3.08E2,2.86E3,2.48E2,4.5E1,7E0,2.912E3,9.71E2,1.732E3,5.71E2,7E0,1.03E2,1.75E2,2.43E2,1.875E3,1.6E1,5.48E2,3.37E2,4.74E2,2.59E2,2.67E2,4.1E1,2.203E3,6.57E2,5.2E1,1.96E2,2.487E3,4.25E2,3.05E2,6.66E2,1.554E3,1.78E2,2.35E2,3.36E2,9.1E1,1.2E1,1.62E2,1.3E1,1.02E2,1.773E3,9E0,7E0,5.32E2,1.6E1,3.1E2,2.7E1,4.7E1,4.27E2,1.33E2,1.26E2,1.96E2,7.1E1,2.6E1,1.5E1,9.79E2,1.224E3,2.4E1,2.8E1,1.41E2,2.346E3,8E0,2.97E2,1.2E1,1.542E3,1.74E2,6.1E1,1.94E2,1.42E2,8.1E1,2.1E1,1.553E3,2.2E2,2.11E2,3.21E2,2.34E2,7.6E1,9E0,1.8E1,2.9E1,1.8E1,1E1,4.17E2,1.13E2,2E1,4.5E1,8.1E1,3.2E1,3.9E1,2.7E2,7.09E2,2.5E1,1.199E3,2.86E2,1.1E1,8.4E1,1.458E3,3.6E1,2.5E1,1.8E1,6.3E1,1.282E3,2.71E2,2.1E1,5.5E1,2.54E2,1.63E2,1.3E1,7E0,7E0,2.5E1,6.94E2,5.05E2,7.8E1,1.38E3,2.8E1,1.254E3,1.1E1,1E1,2.32E2,2.2E1],"tree_param":{"num_deleted":"0","num_feature":"12","num_nodes":"147","size_leaf_vector":"1"}},{"base_weights":[-8.11311E-1,-9.161145E-1,-3.472454E-2,-9.416511E-1,-1.8096514E-1,-4.7314948E-1,9.622887E-2,-9.7044086E-1,-8.898592E-1,-2.751159E-1,4.3E-1,-6.0554373E-1,-1.9004525E-1,-6.582447E-2,3.9925373E-1,-2.93668E-2,-9.268941E-1,-9.232003E-1,-7.9864144E-1,-4.3951613E-1,-1.725E-1,6.315789E-1,1.590909E-1,-4.8554912E-1,-2.020202E-2,-2.85E-1,2.0454545E-2,-9.6219935E-2,2.46E-2,3.029661E-1,5.345345E-1,-9.454106E-1,-7.180851E-1,-2.8367937E-2,-8.755531E-1,-8.5386384E-1,-7.0198673E-1,-4.5726496E-1,-4E-3,-3.5869566E-1,-1.16504855E-1,2.1E-2,3.75E-3,-5.4545454E-3,7.941177E-3,-1.554878E-2,3E-3,-2.55E-2,-6.629834E-3,-2.948718E-1,8.885942E-2,4.7222218E-3,1.0356165E-2,4.7161573E-1,2E-2,-2.8812056E-2,-2.6279682E-2,-2.6557377E-2,-1.8984374E-2,-8.888889E-1,-2.3690477E-2,-6.041667E-1,-2.5880953E-2,-7.6346153E-1,-5.635593E-1,-1.1698113E-2,-5.9210527E-1,-4.3939394E-1,-4.4444446E-3,-9.966777E-2,-2E-2,3.3962265E-1,-3.4615386E-1,-4.9212597E-2,3.7246963E-1,5.6122446E-1,4.0151516E-1,-2.7193395E-2,-2.4230769E-2,-2.5588235E-2,-0E0,-2.2422997E-2,-2.9117646E-2,-7.87037E-1,-3.7209302E-1,-3.75E-3,-1.9130435E-2,-6.052632E-1,-6.2068966E-3,-1.2720849E-1,9.473683E-3,1.3636363E-3,1.59375E-2,2.6666665E-2,-3.6292836E-1,-3.4E-2,-2.6666665E-2,2.4817519E-1,1.5675675E-2,1.8518519E-2,8.333334E-3,1.296E-2,-3.75E-3,-4.642857E-1,-2.6666665E-2,-3.5820894E-3,-1.904762E-2,-2.347826E-2,-9.374999E-3,6.6666664E-3,-4.1454546E-3,-1.3931397E-2,-6.4772726E-3,1.0227272E-2,-7.002188E-2,1.764706E-2,1.983471E-1,-2.1428573E-3,-2.4E-2,-5.2554742E-3,-7.476635E-4,9.782609E-3,3.5526315E-3],"categories":[],"categories_nodes":[],"categories_segments":[],"categories_sizes":[],"default_left":[0,0,0,0,0,0,0,0,0,0,0,0,0,0,0,0,0,0,0,0,0,0,0,0,0,0,0,0,0,0,0,0,0,0,0,0,0,0,0,0,0,0,0,0,0,0,0,0,0,0,0,0,0,0,0,0,0,0,0,0,0,0,0,0,0,0,0,0,0,0,0,0,0,0,0,0,0,0,0,0,0,0,0,0,0,0,0,0,0,0,0,0,0,0,0,0,0,0,0,0,0,0,0,0,0,0,0,0,0,0,0,0,0,0,0,0,0,0,0,0,0,0,0],"id":14,"left_children":[1,3,5,7,9,11,13,15,17,19,21,23,25,27,29,-1,31,33,35,37,39,41,43,45,-1,47,-1,49,-1,51,53,55,57,-1,59,61,63,65,-1,67,69,-1,-1,-1,-1,-1,-1,-1,-1,71,73,-1,-1,75,-1,-1,-1,-1,-1,77,-1,79,-1,81,83,-1,85,87,-1,89,-1,91,93,95,97,99,101,-1,-1,-1,-1,-1,-1,103,105,-1,-1,107,-1,109,-1,-1,-1,-1,111,113,-1,115,-1,-1,-1,-1,-1,117,-1,-1,-1,-1,-1,-1,-1,-1,-1,-1,119,-1,121,-1,-1,-1,-1,-1,-1],"loss_changes":[2.0492598E3,4.1631445E2,1.7199818E2,3.1105469E1,4.303034E1,2.570958E1,1.13314255E2,4.161133E0,2.2595703E1,1.0839123E1,5.3604774E0,3.4918518E0,1.8490376E1,4.0574165E1,1.0310852E1,0E0,8.047607E0,5.161133E0,1.0401123E1,1.2867584E0,4.1286316E0,1.8881588E0,1.632353E0,3.3687477E0,0E0,7.044779E0,0E0,5.352125E1,0E0,2.8476639E0,2.4540176E0,1.3129883E0,2.119606E0,0E0,1.3684082E0,2.3619995E0,5.9946594E0,1.8934898E0,0E0,1.4980593E0,2.7958584E0,0E0,0E0,0E0,0E0,0E0,0E0,0E0,0E0,2.2959358E1,2.9543943E1,0E0,0E0,1.2131538E0,0E0,0E0,0E0,0E0,0E0,1.4875488E0,0E0,7.2144604E0,0E0,1.000885E0,9.805222E0,0E0,1.5382347E0,2.4200077E0,0E0,3.484209E0,0E0,2.9634976E0,1.3788803E1,6.4587965E0,4.4770546E0,1.3857384E0,2.1726952E0,0E0,0E0,0E0,0E0,0E0,0E0,3.1375656E0,8.491583E0,0E0,0E0,1.728404E0,0E0,1.1158485E0,0E0,0E0,0E0,0E0,9.475388E0,6.7763367E0,0E0,2.2047272E0,0E0,0E0,0E0,0E0,0E0,3.6357145E0,0E0,0E0,0E0,0E0,0E0,0E0,0E0,0E0,0E0,0E0,2.1630564E0,0E0,1.1967635E0,0E0,0E0,0E0,0E0,0E0,0E0],"parents":[2147483647,0,0,1,1,2,2,3,3,4,4,5,5,6,6,7,7,8,8,9,9,10,10,11,11,12,12,13,13,14,14,16,16,17,17,18,18,19,19,20,20,21,21,22,22,23,23,25,25,27,27,29,29,30,30,31,31,32,32,34,34,35,35,36,36,37,37,39,39,40,40,49,49,50,50,53,53,59,59,61,61,63,63,64,64,66,66,67,67,69,69,71,71,72,72,73,73,74,74,75,75,76,76,83,83,84,84,87,87,89,89,94,94,95,95,97,97,103,103,114,114,116,116],"right_children":[2,4,6,8,10,12,14,16,18,20,22,24,26,28,30,-1,32,34,36,38,40,42,44,46,-1,48,-1,50,-1,52,54,56,58,-1,60,62,64,66,-1,68,70,-1,-1,-1,-1,-1,-1,-1,-1,72,74,-1,-1,76,-1,-1,-1,-1,-1,78,-1,80,-1,82,84,-1,86,88,-1,90,-1,92,94,96,98,100,102,-1,-1,-1,-1,-1,-1,104,106,-1,-1,108,-1,110,-1,-1,-1,-1,112,114,-1,116,-1,-1,-1,-1,-1,118,-1,-1,-1,-1,-1,-1,-1,-1,-1,-1,120,-1,122,-1,-1,-1,-1,-1,-1],"split_conditions":[1E0,1E0,3E0,3E0,4E0,4E0,4E0,1E0,4E0,1E0,5E0,1E0,5E0,1E0,4E0,-2.93668E-2,1E0,4E0,3E0,5E0,4E0,1E0,1E0,4E0,-2.020202E-2,2E0,2.0454545E-2,3E0,2.46E-2,3E0,5E0,4E0,1E0,-2.8367937E-2,5E0,2E0,4E0,4E0,-4E-3,1E0,3E0,2.1E-2,3.75E-3,-5.4545454E-3,7.941177E-3,-1.554878E-2,3E-3,-2.55E-2,-6.629834E-3,2E0,4E0,4.7222218E-3,1.0356165E-2,1E0,2E-2,-2.8812056E-2,-2.6279682E-2,-2.6557377E-2,-1.8984374E-2,3E0,-2.3690477E-2,1E0,-2.5880953E-2,6E0,1E0,-1.1698113E-2,1E0,1E0,-4.4444446E-3,1E0,-2E-2,1E0,2E0,1E0,4E0,5E0,1E0,-2.7193395E-2,-2.4230769E-2,-2.5588235E-2,-0E0,-2.2422997E-2,-2.9117646E-2,4E0,5E0,-3.75E-3,-1.9130435E-2,3E0,-6.2068966E-3,2E0,9.473683E-3,1.3636363E-3,1.59375E-2,2.6666665E-2,4E0,2E0,-2.6666665E-2,2E0,1.5675675E-2,1.8518519E-2,8.333334E-3,1.296E-2,-3.75E-3,1E0,-2.6666665E-2,-3.5820894E-3,-1.904762E-2,-2.347826E-2,-9.374999E-3,6.6666664E-3,-4.1454546E-3,-1.3931397E-2,-6.4772726E-3,1.0227272E-2,1E0,1.764706E-2,1E0,-2.1428573E-3,-2.4E-2,-5.2554742E-3,-7.476635E-4,9.782609E-3,3.5526315E-3],"split_indices":[5,7,11,11,3,4,4,2,4,10,3,10,3,7,11,0,0,11,3,11,4,2,10,3,0,11,0,3,0,3,3,4,10,0,11,3,11,11,0,2,3,0,0,0,0,0,0,0,0,4,11,0,0,10,0,0,0,0,0,3,0,2,0,4,10,0,0,0,0,2,0,10,3,0,3,11,0,0,0,0,0,0,0,3,3,0,0,11,0,3,0,0,0,0,11,4,0,4,0,0,0,0,0,0,0,0,0,0,0,0,0,0,0,0,10,0,10,0,0,0,0,0,0],"split_type":[0,0,0,0,0,0,0,0,0,0,0,0,0,0,0,0,0,0,0,0,0,0,0,0,0,0,0,0,0,0,0,0,0,0,0,0,0,0,0,0,0,0,0,0,0,0,0,0,0,0,0,0,0,0,0,0,0,0,0,0,0,0,0,0,0,0,0,0,0,0,0,0,0,0,0,0,0,0,0,0,0,0,0,0,0,0,0,0,0,0,0,0,0,0,0,0,0,0,0,0,0,0,0,0,0,0,0,0,0,0,0,0,0,0,0,0,0,0,0,0,0,0,0],"sum_hessian":[2.5178E4,2.2184E4,2.994E3,2.1439E4,7.45E2,6.88E2,2.306E3,1.3768E4,7.671E3,6.46E2,9.9E1,4.68E2,2.2E2,1.503E3,8.03E2,1.1512E4,2.256E3,5.611E3,2.06E3,2.47E2,3.99E2,5.6E1,4.3E1,1.72E2,2.96E2,1.99E2,2.1E1,1.454E3,4.9E1,4.71E2,3.32E2,2.069E3,1.87E2,3.804E3,1.807E3,1.306E3,7.54E2,2.33E2,1.4E1,9.1E1,3.08E2,4.9E1,7E0,1E1,3.3E1,1.63E2,9E0,1.9E1,1.8E2,7.01E2,7.53E2,1.07E2,3.64E2,2.28E2,1.04E2,1.691E3,3.78E2,6E1,1.27E2,1.556E3,2.51E2,4.7E1,1.259E3,5.19E2,2.35E2,1.58E2,7.5E1,6.5E1,2.6E1,3E2,8E0,5.2E1,6.49E2,5.07E2,2.46E2,9.7E1,1.31E2,1.271E3,2.85E2,3.3E1,1.4E1,4.86E2,3.3E1,1.07E2,1.28E2,7E0,6.8E1,3.7E1,2.8E1,2.82E2,1.8E1,2.1E1,3.1E1,8E0,6.41E2,4.99E2,8E0,1.36E2,1.1E2,8E1,1.7E1,1.24E2,7E0,2.7E1,8E1,6.6E1,6.2E1,2.2E1,1.5E1,8E0,2.74E2,3.78E2,2.63E2,4.3E1,4.56E2,1.6E1,1.2E2,1.3E1,1.4E1,1.36E2,3.2E2,4.5E1,7.5E1],"tree_param":{"num_deleted":"0","num_feature":"12","num_nodes":"123","size_leaf_vector":"1"}},{"base_weights":[-8.0979085E-1,-9.157405E-1,-3.1198142E-2,-9.4076395E-1,-1.9705094E-1,-4.867647E-1,1.0154241E-1,-9.7086394E-1,-8.863249E-1,-2.100271E-1,2.6666665E-2,-6.438053E-1,-1.7467248E-1,-5.0791558E-2,3.833944E-1,-2.9391857E-2,-9.2555064E-1,-9.203381E-1,-7.94388E-1,-3.2014388E-1,-1.4316703E-1,-2.647059E-1,-6.7303103E-1,-1.9322034E-2,-1.16959065E-2,-5.218978E-1,5.3097345E-2,2.6283368E-1,5.585586E-1,-2.8662419E-2,-8.290441E-1,-9.503653E-1,-8.449466E-1,-8.3375794E-1,-6.686747E-1,-1.1132812E-2,2.6086956E-1,-3.3009708E-1,-8.913649E-2,-2.7857142E-2,5.7142857E-3,-5.2666664E-1,-2.2555554E-2,-2.75E-2,5.625E-2,-5.660377E-1,2.1E-2,5.9090906E-1,8.818342E-4,-9.836064E-4,9.133489E-3,2.0820895E-2,4.65E-1,-2.6452703E-2,-7.630522E-1,-2.8689783E-2,-2.4843749E-2,-8.539909E-1,-5.660377E-1,-2.6254294E-2,-7.808023E-1,-6.945055E-1,-3.8636363E-1,-3.75E-3,1.3125E-2,-1.2911392E-2,-0E0,-1.3030303E-1,3.6666667E-1,-2.1818181E-2,-1.3983051E-2,4.4594593E-3,-6.8965513E-4,-0E0,-1.7928287E-2,1.2096774E-2,2.4489796E-2,-3.199269E-2,2.6341463E-2,2.1428573E-3,1.4759358E-2,-2.3516947E-2,-1.0714286E-2,-2.6344186E-2,-2.3897216E-2,-2.0294117E-2,-1.05E-2,-7.9940563E-1,-8.076923E-3,-2.4406778E-2,-6.1648744E-1,-2.4E-2,-5E-3,-1.2499999E-2,-3.5736677E-3,1.904762E-1,2.1E-2,-1.3556851E-1,1.4180928E-1,-2.5969163E-2,-1.9772727E-2,-2.0923076E-2,-1.2705882E-2,-3.75E-3,1.0714286E-2,-6.853448E-3,-2.6373626E-3,4.8913043E-2,6.504425E-3,5.357143E-4,1.0588235E-2],"categories":[],"categories_nodes":[],"categories_segments":[],"categories_sizes":[],"default_left":[0,0,0,0,0,0,0,0,0,0,0,0,0,0,0,0,0,0,0,0,0,0,0,0,0,0,0,0,0,0,0,0,0,0,0,0,0,0,0,0,0,0,0,0,0,0,0,0,0,0,0,0,0,0,0,0,0,0,0,0,0,0,0,0,0,0,0,0,0,0,0,0,0,0,0,0,0,0,0,0,0,0,0,0,0,0,0,0,0,0,0,0,0,0,0,0,0,0,0,0,0,0,0,0,0,0,0,0,0,0,0],"id":15,"left_children":[1,3,5,7,9,11,13,15,17,19,-1,21,23,25,27,-1,29,31,33,35,37,39,41,-1,43,45,47,49,51,-1,53,55,57,59,61,-1,63,65,67,-1,-1,69,-1,-1,71,73,-1,75,77,-1,-1,-1,79,-1,81,-1,-1,83,85,-1,87,89,91,-1,-1,-1,-1,93,95,-1,-1,-1,-1,-1,-1,-1,-1,97,-1,-1,-1,-1,-1,-1,-1,-1,-1,99,-1,-1,101,-1,-1,-1,-1,103,-1,105,107,-1,-1,-1,-1,-1,-1,-1,-1,109,-1,-1,-1],"loss_changes":[2.0743066E3,3.97875E2,1.8225203E2,3.41875E1,1.0698822E1,3.3215134E1,1.0023123E2,4.6220703E0,2.311914E1,5.3876305E0,0E0,4.8297577E0,1.751107E1,7.422486E1,1.7148773E1,0E0,5.750122E0,1.1786133E1,9.6727295E0,8.326317E0,4.626644E0,1.045098E1,4.437851E0,0E0,1.0566192E1,1.5174278E1,3.490555E1,6.001316E0,3.8978882E0,0E0,1.2195435E0,2.1000977E0,3.534912E0,2.7574463E0,3.3632355E0,0E0,1.6222826E0,3.4096107E0,6.7839966E0,0E0,0E0,1.4834747E0,0E0,0E0,1.1748621E0,4.735771E0,0E0,4.3246155E0,3.272862E1,0E0,0E0,0E0,2.0884628E0,0E0,1.8269806E0,0E0,0E0,1.4371338E0,1.0276909E0,0E0,6.427582E0,3.7246552E0,3.8651514E0,0E0,0E0,0E0,0E0,1.0069485E0,1.6285715E0,0E0,0E0,0E0,0E0,0E0,0E0,0E0,0E0,1.9713068E1,0E0,0E0,0E0,0E0,0E0,0E0,0E0,0E0,0E0,5.6839905E0,0E0,0E0,4.0625E0,0E0,0E0,0E0,0E0,1.1488094E0,0E0,3.0163698E0,2.8391714E0,0E0,0E0,0E0,0E0,0E0,0E0,0E0,0E0,1.7310013E0,0E0,0E0,0E0],"parents":[2147483647,0,0,1,1,2,2,3,3,4,4,5,5,6,6,7,7,8,8,9,9,11,11,12,12,13,13,14,14,16,16,17,17,18,18,19,19,20,20,21,21,22,22,24,24,25,25,26,26,27,27,28,28,30,30,31,31,32,32,33,33,34,34,36,36,37,37,38,38,41,41,44,44,45,45,47,47,48,48,52,52,54,54,57,57,58,58,60,60,61,61,62,62,67,67,68,68,77,77,87,87,90,90,95,95,97,97,98,98,107,107],"right_children":[2,4,6,8,10,12,14,16,18,20,-1,22,24,26,28,-1,30,32,34,36,38,40,42,-1,44,46,48,50,52,-1,54,56,58,60,62,-1,64,66,68,-1,-1,70,-1,-1,72,74,-1,76,78,-1,-1,-1,80,-1,82,-1,-1,84,86,-1,88,90,92,-1,-1,-1,-1,94,96,-1,-1,-1,-1,-1,-1,-1,-1,98,-1,-1,-1,-1,-1,-1,-1,-1,-1,100,-1,-1,102,-1,-1,-1,-1,104,-1,106,108,-1,-1,-1,-1,-1,-1,-1,-1,110,-1,-1,-1],"split_conditions":[1E0,1E0,3E0,3E0,1E0,4E0,4E0,1E0,4E0,1E0,2.6666665E-2,3E0,1E0,1E0,4E0,-2.9391857E-2,4E0,1E0,1E0,5E0,4E0,1E0,1E0,-1.9322034E-2,2E0,1E0,2E0,1E0,1E0,-2.8662419E-2,1E0,5E0,5E0,1E0,1E0,-1.1132812E-2,4E0,1E0,1E0,-2.7857142E-2,5.7142857E-3,1E0,-2.2555554E-2,-2.75E-2,1E0,2E0,2.1E-2,4E0,1E0,-9.836064E-4,9.133489E-3,2.0820895E-2,1E0,-2.6452703E-2,1E0,-2.8689783E-2,-2.4843749E-2,4E0,1E0,-2.6254294E-2,5E0,1E0,1E0,-3.75E-3,1.3125E-2,-1.2911392E-2,-0E0,2E0,1E0,-2.1818181E-2,-1.3983051E-2,4.4594593E-3,-6.8965513E-4,-0E0,-1.7928287E-2,1.2096774E-2,2.4489796E-2,4E0,2.6341463E-2,2.1428573E-3,1.4759358E-2,-2.3516947E-2,-1.0714286E-2,-2.6344186E-2,-2.3897216E-2,-2.0294117E-2,-1.05E-2,1E0,-8.076923E-3,-2.4406778E-2,4E0,-2.4E-2,-5E-3,-1.2499999E-2,-3.5736677E-3,3E0,2.1E-2,1E0,1E0,-2.5969163E-2,-1.9772727E-2,-2.0923076E-2,-1.2705882E-2,-3.75E-3,1.0714286E-2,-6.853448E-3,-2.6373626E-3,5E0,6.504425E-3,5.357143E-4,1.0588235E-2],"split_indices":[5,7,11,11,9,4,4,2,4,10,0,4,1,1,11,0,4,1,2,11,4,1,10,0,11,7,4,1,10,0,1,11,11,10,9,0,4,1,2,0,0,1,0,0,10,4,0,11,7,0,0,0,1,0,9,0,0,11,10,0,11,1,10,0,0,0,0,11,1,0,0,0,0,0,0,0,0,11,0,0,0,0,0,0,0,0,0,9,0,0,11,0,0,0,0,11,0,10,10,0,0,0,0,0,0,0,0,11,0,0,0],"split_type":[0,0,0,0,0,0,0,0,0,0,0,0,0,0,0,0,0,0,0,0,0,0,0,0,0,0,0,0,0,0,0,0,0,0,0,0,0,0,0,0,0,0,0,0,0,0,0,0,0,0,0,0,0,0,0,0,0,0,0,0,0,0,0,0,0,0,0,0,0,0,0,0,0,0,0,0,0,0,0,0,0,0,0,0,0,0,0,0,0,0,0,0,0,0,0,0,0,0,0,0,0,0,0,0,0,0,0,0,0,0,0],"sum_hessian":[2.5145E4,2.2133E4,3.012E3,2.1388E4,7.45E2,6.79E2,2.333E3,1.3762E4,7.626E3,7.37E2,8E0,4.51E2,2.28E2,1.515E3,8.18E2,1.1493E4,2.269E3,5.56E3,2.066E3,2.77E2,4.6E2,3.3E1,4.18E2,5.8E1,1.7E2,2.73E2,1.242E3,4.86E2,3.32E2,1.726E3,5.43E2,3.968E3,1.592E3,1.569E3,4.97E2,2.55E2,2.2E1,1.02E2,3.58E2,1.3E1,2E1,1.49E2,2.69E2,1.1E1,1.59E2,2.64E2,9E0,1.09E2,1.133E3,6E1,4.26E2,1.33E2,1.99E2,2.95E2,2.48E2,3.777E3,1.91E2,1.54E3,5.2E1,8.72E2,6.97E2,4.54E2,4.3E1,7E0,1.5E1,7.8E1,2.4E1,3.29E2,2.9E1,3.2E1,1.17E2,7.3E1,8.6E1,1.4E1,2.5E2,6.1E1,4.8E1,1.093E3,4E1,1.3E1,1.86E2,2.35E2,1.3E1,1.074E3,4.66E2,3.3E1,1.9E1,6.72E2,2.5E1,1.76E2,2.78E2,1.4E1,2.9E1,1.1E1,3.18E2,2E1,9E0,6.85E2,4.08E2,4.53E2,2.19E2,1.94E2,8.4E1,7E0,1.3E1,2.31E2,4.54E2,1.83E2,2.25E2,1.67E2,1.6E1],"tree_param":{"num_deleted":"0","num_feature":"12","num_nodes":"111","size_leaf_vector":"1"}},{"base_weights":[-8.13182E-1,-9.29707E-1,-5.750636E-1,-9.5882714E-1,-2.124431E-1,-6.8579817E-1,-2.545969E-1,-2.9393334E-2,-9.070314E-1,-3.0051813E-1,4.1975307E-1,-8.8045454E-1,-5.7676667E-1,-6.3164896E-1,-4.7445256E-2,-9.4268334E-1,-8.34939E-1,3.5294117E-3,-3.12611E-1,6.6E-1,9.375E-4,-8.8858324E-1,1.5E-3,-7.017402E-1,-3.6543715E-1,-2.887218E-2,-5.596774E-1,4.8692517E-2,-4.5419848E-1,-2.8483428E-2,-2.3649635E-2,-8.6411715E-1,-7.234042E-1,-2.3076924E-2,-9.038112E-3,5.4545454E-3,2.3249999E-2,-2.9416341E-2,-8.758442E-1,-7.3052895E-1,2.8169015E-1,-4.7009346E-1,-8.101266E-2,-6.06947E-1,-2.027027E-1,-1.5424165E-1,1.5811373E-1,-5.4298645E-1,2.3809524E-2,-2.6920289E-2,-7.935323E-1,-2.6063347E-2,-4.2201835E-1,-2.7966866E-2,-2.53645E-2,-4.940476E-1,-7.4798566E-1,1.5428572E-2,1.6216217E-3,-4.7977424E-1,2.625E-2,7.7999993E-3,-1.300578E-1,-6.159555E-1,-0E0,4.3902434E-3,-1.8529411E-2,-1.8157895E-1,2.6999999E-2,1.2847965E-3,3.6862746E-1,5.4545454E-3,-5.78199E-1,1.05E-2,-7.826087E-3,-2.4420485E-2,-5.3125E-1,7.105263E-3,-2.2916667E-2,-1.7142858E-2,-1.078125E-2,-3.1578946E-3,-7.5315887E-1,-6.0714283E-3,-1.5091836E-2,-2.0657277E-1,-7.4626864E-3,-8E-3,-1.8742856E-2,-1.0142857E-2,1.16959065E-2,2.777778E-1,1.3615385E-2,-6.4285713E-1,-1.1896552E-2,-7.5E-3,-2E-2,-2.3927765E-2,-2.0574324E-2,-5.55E-3,-1.5E-2,4.7244094E-4,-1.12499995E-2,1.8045113E-3,-4.6153846E-3,9.230769E-3,-3E-3,-7.1568626E-1,-1.4716981E-2,-2.4155844E-2,-1.2692307E-2],"categories":[],"categories_nodes":[],"categories_segments":[],"categories_sizes":[],"default_left":[0,0,0,0,0,0,0,0,0,0,0,0,0,0,0,0,0,0,0,0,0,0,0,0,0,0,0,0,0,0,0,0,0,0,0,0,0,0,0,0,0,0,0,0,0,0,0,0,0,0,0,0,0,0,0,0,0,0,0,0,0,0,0,0,0,0,0,0,0,0,0,0,0,0,0,0,0,0,0,0,0,0,0,0,0,0,0,0,0,0,0,0,0,0,0,0,0,0,0,0,0,0,0,0,0,0,0,0,0,0,0],"id":16,"left_children":[1,3,5,7,9,11,13,-1,15,17,19,21,23,25,27,29,31,-1,33,35,-1,37,-1,39,41,-1,43,45,47,-1,-1,49,51,-1,-1,-1,-1,-1,53,55,57,59,61,63,65,67,69,71,73,-1,75,-1,77,-1,-1,79,81,-1,-1,83,-1,-1,85,87,-1,-1,-1,89,-1,-1,91,-1,93,-1,-1,-1,95,-1,-1,-1,-1,-1,97,-1,-1,99,101,-1,-1,-1,103,105,-1,107,-1,-1,-1,-1,-1,-1,-1,-1,-1,-1,-1,-1,-1,109,-1,-1,-1],"loss_changes":[6.9618555E2,3.519082E2,2.926975E2,1.669043E1,3.6819725E1,1.2965698E2,1.6563487E2,0E0,1.1239014E1,2.964676E0,7.539646E0,1.6683838E1,1.03642944E2,1.7362823E1,5.359507E1,2.512207E0,4.4420166E0,0E0,2.6836586E0,2.608635E0,0E0,1.6962891E0,0E0,7.016406E1,4.3540543E1,0E0,1.0338867E1,2.4650068E1,1.1132565E1,0E0,0E0,2.170227E0,1.4048065E1,0E0,0E0,0E0,0E0,0E0,2.5072021E0,9.542236E0,3.7314487E0,1.4352844E1,6.640196E0,2.9908295E0,1.0808097E1,1.137445E1,1.7482546E1,5.745552E0,3.9914079E0,0E0,1.7273254E0,0E0,2.4732626E1,0E0,0E0,1.5453873E0,7.348633E0,0E0,0E0,6.764801E0,0E0,0E0,3.2440634E0,1.4913483E0,0E0,0E0,0E0,1.1499207E1,0E0,0E0,1.8481636E0,0E0,2.2232666E0,0E0,0E0,0E0,1.052083E0,0E0,0E0,0E0,0E0,0E0,6.0843506E0,0E0,0E0,1.2557974E0,1.1490333E0,0E0,0E0,0E0,1.3808881E0,1.4547014E0,0E0,1.3569603E0,0E0,0E0,0E0,0E0,0E0,0E0,0E0,0E0,0E0,0E0,0E0,0E0,0E0,2.3308258E0,0E0,0E0,0E0],"parents":[2147483647,0,0,1,1,2,2,3,3,4,4,5,5,6,6,8,8,9,9,10,10,11,11,12,12,13,13,14,14,15,15,16,16,18,18,19,19,21,21,23,23,24,24,26,26,27,27,28,28,31,31,32,32,38,38,39,39,40,40,41,41,42,42,43,43,44,44,45,45,46,46,47,47,48,48,50,50,52,52,55,55,56,56,59,59,62,62,63,63,67,67,70,70,72,72,76,76,82,82,85,85,86,86,90,90,91,91,93,93,107,107],"right_children":[2,4,6,8,10,12,14,-1,16,18,20,22,24,26,28,30,32,-1,34,36,-1,38,-1,40,42,-1,44,46,48,-1,-1,50,52,-1,-1,-1,-1,-1,54,56,58,60,62,64,66,68,70,72,74,-1,76,-1,78,-1,-1,80,82,-1,-1,84,-1,-1,86,88,-1,-1,-1,90,-1,-1,92,-1,94,-1,-1,-1,96,-1,-1,-1,-1,-1,98,-1,-1,100,102,-1,-1,-1,104,106,-1,108,-1,-1,-1,-1,-1,-1,-1,-1,-1,-1,-1,-1,-1,110,-1,-1,-1],"split_conditions":[1E0,1E0,4E0,3E0,4E0,3E0,3E0,-2.9393334E-2,4E0,2E0,5E0,1E0,3E0,2E0,1E0,5E0,4E0,3.5294117E-3,3E0,3E0,9.375E-4,2E0,1.5E-3,1E0,4E0,-2.887218E-2,5E0,3E0,1E0,-2.8483428E-2,-2.3649635E-2,4E0,1E0,-2.3076924E-2,-9.038112E-3,5.4545454E-3,2.3249999E-2,-2.9416341E-2,3E0,2E0,4E0,1E0,2E0,1E0,1E0,1E0,4E0,2E0,4E0,-2.6920289E-2,3E0,-2.6063347E-2,5E0,-2.7966866E-2,-2.53645E-2,4E0,2E0,1.5428572E-2,1.6216217E-3,2E0,2.625E-2,7.7999993E-3,5E0,2E0,-0E0,4.3902434E-3,-1.8529411E-2,4E0,2.6999999E-2,1.2847965E-3,5E0,5.4545454E-3,5E0,1.05E-2,-7.826087E-3,-2.4420485E-2,1E0,7.105263E-3,-2.2916667E-2,-1.7142858E-2,-1.078125E-2,-3.1578946E-3,4E0,-6.0714283E-3,-1.5091836E-2,5E0,1E0,-8E-3,-1.8742856E-2,-1.0142857E-2,5E0,4E0,1.3615385E-2,4E0,-1.1896552E-2,-7.5E-3,-2E-2,-2.3927765E-2,-2.0574324E-2,-5.55E-3,-1.5E-2,4.7244094E-4,-1.12499995E-2,1.8045113E-3,-4.6153846E-3,9.230769E-3,-3E-3,1E0,-1.4716981E-2,-2.4155844E-2,-1.2692307E-2],"split_indices":[2,7,4,11,3,11,11,0,4,3,3,7,3,11,0,11,3,0,4,11,0,11,0,7,11,0,3,3,7,0,0,11,9,0,0,0,0,0,3,4,11,7,4,7,0,7,11,3,11,0,3,0,3,0,0,11,3,0,0,4,0,0,3,3,0,0,0,11,0,0,3,0,3,0,0,0,0,0,0,0,0,0,11,0,0,11,0,0,0,0,11,3,0,11,0,0,0,0,0,0,0,0,0,0,0,0,0,9,0,0,0],"split_type":[0,0,0,0,0,0,0,0,0,0,0,0,0,0,0,0,0,0,0,0,0,0,0,0,0,0,0,0,0,0,0,0,0,0,0,0,0,0,0,0,0,0,0,0,0,0,0,0,0,0,0,0,0,0,0,0,0,0,0,0,0,0,0,0,0,0,0,0,0,0,0,0,0,0,0,0,0,0,0,0,0,0,0,0,0,0,0,0,0,0,0,0,0,0,0,0,0,0,0,0,0,0,0,0,0,0,0,0,0,0,0],"sum_hessian":[2.5109E4,1.6857E4,8.252E3,1.6199E4,6.58E2,6.132E3,2.12E3,1.1521E4,4.678E3,5.78E2,8E1,2.199E3,3.933E3,7.51E2,1.369E3,3.122E3,1.556E3,1.6E1,5.62E2,4.9E1,3.1E1,2.18E3,1.9E1,2.47E3,1.463E3,1.32E2,6.19E2,1.108E3,2.61E2,2.986E3,1.36E2,1.228E3,3.28E2,1.2E1,5.5E2,1E1,3.9E1,2.56E2,1.924E3,2.4E3,7E1,1.069E3,3.94E2,5.46E2,7.3E1,3.88E2,7.2E2,2.2E2,4.1E1,8.27E2,4.01E2,2.2E2,1.08E2,6.63E2,1.261E3,1.67E2,2.233E3,3.4E1,3.6E1,1.062E3,7E0,4.9E1,3.45E2,5.38E2,8E0,4E1,3.3E1,3.79E2,9E0,4.66E2,2.54E2,1E1,2.1E2,1.9E1,2.2E1,3.7E2,3.1E1,3.7E1,7.1E1,1.04E2,6.3E1,1.8E1,2.215E3,8.3E1,9.79E2,2.12E2,1.33E2,1.4E1,5.24E2,2.09E2,1.7E2,1.25E2,1.29E2,1.53E2,5.7E1,1.1E1,2E1,1.328E3,8.87E2,1.99E2,1.3E1,1.26E2,7E0,1.32E2,3.8E1,1.16E2,9E0,1.01E2,5.2E1,7.6E1,2.5E1],"tree_param":{"num_deleted":"0","num_feature":"12","num_nodes":"111","size_leaf_vector":"1"}},{"base_weights":[-8.1268823E-1,-9.1632944E-1,-4.2737897E-2,-9.4236135E-1,-1.6599733E-1,-4.882698E-1,8.859118E-2,-9.567622E-1,-8.330012E-1,-2.6307693E-1,4.7959185E-1,-5.293186E-1,1.923077E-2,-1.09201215E-1,2.3604827E-1,-9.719199E-1,-9.164586E-1,-8.646423E-1,-7.2310406E-1,-4.1796875E-1,-1.6202532E-1,-1.3333333E-2,5.6666666E-1,-2.7631579E-2,-5.03367E-1,1.68E-2,-1.3928571E-2,-1.6435432E-1,2.6037734E-2,1.21040724E-1,4.650113E-1,-2.9377064E-2,-9.344479E-1,-9.353566E-1,-8.8342917E-1,-2.6883446E-2,-8.144737E-1,-7.811861E-1,-3.5443038E-1,-4.4351465E-1,-1.6666666E-3,-3.768116E-1,-1.1620795E-1,2.2105262E-2,7.941177E-3,-6.143791E-1,-1.3914027E-2,-3.3015266E-1,4.589372E-2,1.130137E-1,2.6666665E-2,1.0837004E-2,5.714286E-1,-2.8472155E-2,-7.514451E-1,-2.8834792E-2,-9.0258855E-1,-8.8877064E-1,-1.7142858E-2,-8.362832E-1,-6.2650603E-1,-2.6436782E-2,-6.637555E-1,2.631579E-2,-2.0714285E-2,-8.4999995E-3,-1.4833333E-2,-1.7857142E-2,-1.0714286E-3,-9.6875E-2,-2.625E-2,-1.47826085E-2,-2.117647E-2,9.374999E-3,-3.497053E-1,-5.581395E-4,1.15E-1,7.938931E-2,2.117117E-1,2.0597015E-2,1.5496688E-2,-7.5E-3,-7.839506E-1,-2.7792338E-2,-2.553459E-2,-1.6E-2,-2.6734583E-2,-2.5642736E-2,-6.875E-1,-2.290909E-2,-1.0344828E-2,-5.5172414E-1,-2.1818181E-2,-2E-2,6.9999998E-3,-1.237785E-1,1.5E-2,-1.2948718E-2,-8.369565E-3,2.3780486E-3,8.108107E-3,2.5462962E-3,-1.12499995E-2,1.1666667E-2,1.5384616E-1,-2.7457627E-2,-2.1057691E-2,-2.2916667E-2,-0E0,-1.913793E-2,-1.1E-2,1.0909091E-2,-1.4141414E-1,5.562914E-3,-3.1578946E-3,-3.9473682E-4,-5.5405404E-3],"categories":[],"categories_nodes":[],"categories_segments":[],"categories_sizes":[],"default_left":[0,0,0,0,0,0,0,0,0,0,0,0,0,0,0,0,0,0,0,0,0,0,0,0,0,0,0,0,0,0,0,0,0,0,0,0,0,0,0,0,0,0,0,0,0,0,0,0,0,0,0,0,0,0,0,0,0,0,0,0,0,0,0,0,0,0,0,0,0,0,0,0,0,0,0,0,0,0,0,0,0,0,0,0,0,0,0,0,0,0,0,0,0,0,0,0,0,0,0,0,0,0,0,0,0,0,0,0,0,0,0,0,0,0,0,0,0],"id":17,"left_children":[1,3,5,7,9,11,13,15,17,19,21,23,25,27,29,31,33,35,37,39,41,-1,43,-1,45,-1,-1,47,-1,49,51,-1,53,55,57,-1,59,61,63,65,-1,67,69,-1,-1,71,-1,73,75,77,-1,-1,79,-1,81,-1,83,85,-1,87,89,-1,91,93,-1,-1,-1,-1,-1,95,-1,-1,-1,-1,97,-1,99,101,103,-1,-1,-1,105,-1,-1,-1,-1,-1,107,-1,-1,109,-1,-1,-1,111,-1,-1,-1,-1,-1,-1,-1,-1,113,-1,-1,-1,-1,-1,-1,-1,115,-1,-1,-1,-1],"loss_changes":[2.0137598E3,4.342871E2,1.7528459E2,3.3058594E1,4.6943302E1,1.4217773E1,6.751565E1,1.0707031E1,8.099243E0,1.0106125E1,8.136961E0,5.951187E0,1.3856483E1,5.344136E1,3.4860573E1,2.8632812E0,2.4238281E0,2.3380127E0,1.1864471E1,2.3454552E0,3.8433828E0,0E0,4.42972E0,0E0,2.3240814E0,0E0,0E0,3.267783E1,0E0,5.3481092E0,4.685959E0,0E0,5.369995E0,1.918457E0,2.6802979E0,0E0,2.5916748E0,5.159729E0,1.0126075E1,1.8096657E0,0E0,5.119566E0,4.712223E0,0E0,0E0,1.3549309E0,0E0,6.69363E0,1.8474379E0,2.890339E0,0E0,0E0,1.0163422E0,0E0,2.6238708E0,0E0,1.0102539E0,1.1157227E0,0E0,1.2759705E0,2.9426918E0,0E0,1.2282867E0,5.6070175E0,0E0,0E0,0E0,0E0,0E0,5.2004576E0,0E0,0E0,0E0,0E0,2.828354E0,0E0,1.0881906E0,1.6649656E0,2.216216E0,0E0,0E0,0E0,1.1023788E0,0E0,0E0,0E0,0E0,0E0,4.2013893E0,0E0,0E0,1.1540222E0,0E0,0E0,0E0,2.6903563E0,0E0,0E0,0E0,0E0,0E0,0E0,0E0,0E0,1.4025793E0,0E0,0E0,0E0,0E0,0E0,0E0,0E0,1.6458359E0,0E0,0E0,0E0,0E0],